{"learner":{"attributes":{"scikit_learn":"{\"_estimator_type\": \"regressor\"}"},"feature_names":["lag_1","lag_2","lag_3","lag_4","lag_5","lag_6","lag_7","lag_8","lag_9","lag_10","lag_11","lag_12","rolling_3","rolling_6","rolling_12","year","month","sin_month","cos_month","kategoriCode","propCode"],"feature_types":["float","float","float","float","float","float","float","float","float","float","float","float","float","float","float","int","int","float","float","int","int"],"gradient_booster":{"model":{"gbtree_model_param":{"num_parallel_tree":"1","num_trees":"500"},"iteration_indptr":[0,1,2,3,4,5,6,7,8,9,10,11,12,13,14,15,16,17,18,19,20,21,22,23,24,25,26,27,28,29,30,31,32,33,34,35,36,37,38,39,40,41,42,43,44,45,46,47,48,49,50,51,52,53,54,55,56,57,58,59,60,61,62,63,64,65,66,67,68,69,70,71,72,73,74,75,76,77,78,79,80,81,82,83,84,85,86,87,88,89,90,91,92,93,94,95,96,97,98,99,100,101,102,103,104,105,106,107,108,109,110,111,112,113,114,115,116,117,118,119,120,121,122,123,124,125,126,127,128,129,130,131,132,133,134,135,136,137,138,139,140,141,142,143,144,145,146,147,148,149,150,151,152,153,154,155,156,157,158,159,160,161,162,163,164,165,166,167,168,169,170,171,172,173,174,175,176,177,178,179,180,181,182,183,184,185,186,187,188,189,190,191,192,193,194,195,196,197,198,199,200,201,202,203,204,205,206,207,208,209,210,211,212,213,214,215,216,217,218,219,220,221,222,223,224,225,226,227,228,229,230,231,232,233,234,235,236,237,238,239,240,241,242,243,244,245,246,247,248,249,250,251,252,253,254,255,256,257,258,259,260,261,262,263,264,265,266,267,268,269,270,271,272,273,274,275,276,277,278,279,280,281,282,283,284,285,286,287,288,289,290,291,292,293,294,295,296,297,298,299,300,301,302,303,304,305,306,307,308,309,310,311,312,313,314,315,316,317,318,319,320,321,322,323,324,325,326,327,328,329,330,331,332,333,334,335,336,337,338,339,340,341,342,343,344,345,346,347,348,349,350,351,352,353,354,355,356,357,358,359,360,361,362,363,364,365,366,367,368,369,370,371,372,373,374,375,376,377,378,379,380,381,382,383,384,385,386,387,388,389,390,391,392,393,394,395,396,397,398,399,400,401,402,403,404,405,406,407,408,409,410,411,412,413,414,415,416,417,418,419,420,421,422,423,424,425,426,427,428,429,430,431,432,433,434,435,436,437,438,439,440,441,442,443,444,445,446,447,448,449,450,451,452,453,454,455,456,457,458,459,460,461,462,463,464,465,466,467,468,469,470,471,472,473,474,475,476,477,478,479,480,481,482,483,484,485,486,487,488,489,490,491,492,493,494,495,496,497,498,499,500],"tree_info":[0,0,0,0,0,0,0,0,0,0,0,0,0,0,0,0,0,0,0,0,0,0,0,0,0,0,0,0,0,0,0,0,0,0,0,0,0,0,0,0,0,0,0,0,0,0,0,0,0,0,0,0,0,0,0,0,0,0,0,0,0,0,0,0,0,0,0,0,0,0,0,0,0,0,0,0,0,0,0,0,0,0,0,0,0,0,0,0,0,0,0,0,0,0,0,0,0,0,0,0,0,0,0,0,0,0,0,0,0,0,0,0,0,0,0,0,0,0,0,0,0,0,0,0,0,0,0,0,0,0,0,0,0,0,0,0,0,0,0,0,0,0,0,0,0,0,0,0,0,0,0,0,0,0,0,0,0,0,0,0,0,0,0,0,0,0,0,0,0,0,0,0,0,0,0,0,0,0,0,0,0,0,0,0,0,0,0,0,0,0,0,0,0,0,0,0,0,0,0,0,0,0,0,0,0,0,0,0,0,0,0,0,0,0,0,0,0,0,0,0,0,0,0,0,0,0,0,0,0,0,0,0,0,0,0,0,0,0,0,0,0,0,0,0,0,0,0,0,0,0,0,0,0,0,0,0,0,0,0,0,0,0,0,0,0,0,0,0,0,0,0,0,0,0,0,0,0,0,0,0,0,0,0,0,0,0,0,0,0,0,0,0,0,0,0,0,0,0,0,0,0,0,0,0,0,0,0,0,0,0,0,0,0,0,0,0,0,0,0,0,0,0,0,0,0,0,0,0,0,0,0,0,0,0,0,0,0,0,0,0,0,0,0,0,0,0,0,0,0,0,0,0,0,0,0,0,0,0,0,0,0,0,0,0,0,0,0,0,0,0,0,0,0,0,0,0,0,0,0,0,0,0,0,0,0,0,0,0,0,0,0,0,0,0,0,0,0,0,0,0,0,0,0,0,0,0,0,0,0,0,0,0,0,0,0,0,0,0,0,0,0,0,0,0,0,0,0,0,0,0,0,0,0,0,0,0,0,0,0,0,0,0,0,0,0,0,0,0,0,0,0,0,0,0,0,0,0,0,0,0,0,0,0,0,0,0,0,0,0,0,0,0,0,0,0,0,0,0,0,0,0,0,0,0,0,0,0,0,0,0,0,0,0,0,0,0,0,0,0,0],"trees":[{"base_weights":[-1.8603208E-7,-1.3056753E0,1.3010705E0,-1.7422798E0,-6.6067135E-1,6.6355145E-1,1.6250713E0,-1.8325247E0,-1.5349973E0,-9.7936946E-1,-3.0233032E-1,2.9335144E-1,9.393339E-1,1.393924E0,1.8782841E0,-1.8521357E0,-1.4967433E0,-1.5483161E0,-6.288527E-1,-1.0599811E0,-6.577549E-1,-4.3497464E-1,1.9266571E-1,-4.0322062E-1,4.7629967E-1,7.273838E-1,1.0999122E0,1.0756553E0,1.4671775E0,1.8807482E0,-1.1058633E0,-5.5671632E-2,-1.8999511E-2,-4.867308E-2,2.4151686E-3,-4.7588486E-2,-4.0162258E-2,-2.8121963E-2,4.1287307E-2,-3.872874E-2,-2.6698768E-2,-3.281587E-2,-1.3242692E-2,-2.1652075E-2,-6.313302E-3,-1.461907E-3,1.8374335E-2,-2.2528358E-2,4.410708E-3,1.0998612E-2,2.9121557E-2,1.8471222E-2,3.518807E-2,2.652032E-2,3.532311E-2,2.5036914E-2,3.8579654E-2,4.215955E-2,5.0871287E-2,2.4869062E-2,5.6578547E-2,2.3125487E-3,-5.6600824E-2],"categories":[],"categories_nodes":[],"categories_segments":[],"categories_sizes":[],"default_left":[0,0,0,0,0,0,0,0,0,0,0,0,0,0,0,0,0,0,0,0,0,0,0,0,0,0,0,0,0,0,0,0,0,0,0,0,0,0,0,0,0,0,0,0,0,0,0,0,0,0,0,0,0,0,0,0,0,0,0,0,0,0,0],"id":0,"left_children":[1,3,5,7,9,11,13,15,17,19,21,23,25,27,29,31,33,35,37,39,41,43,45,47,49,51,53,55,57,59,61,-1,-1,-1,-1,-1,-1,-1,-1,-1,-1,-1,-1,-1,-1,-1,-1,-1,-1,-1,-1,-1,-1,-1,-1,-1,-1,-1,-1,-1,-1,-1,-1],"loss_changes":[3.716933E5,3.075286E4,2.2636219E4,1.2154062E3,5.03426E3,3.7702002E3,4.2503125E3,2.9596875E2,2.375E2,6.042168E2,1.3626936E3,2.0096244E3,7.1950977E2,8.8414844E2,2.570547E2,1.86125E2,4.9744482E2,1.528125E2,1.7940704E2,7.314414E2,4.409303E2,1.0536941E3,4.4457153E2,6.2776996E2,6.768721E2,4.5335205E2,2.0047168E2,3.5956152E2,4.3416406E2,1.8803906E2,2.7151466E1,0E0,0E0,0E0,0E0,0E0,0E0,0E0,0E0,0E0,0E0,0E0,0E0,0E0,0E0,0E0,0E0,0E0,0E0,0E0,0E0,0E0,0E0,0E0,0E0,0E0,0E0,0E0,0E0,0E0,0E0,0E0,0E0],"parents":[2147483647,0,0,1,1,2,2,3,3,4,4,5,5,6,6,7,7,8,8,9,9,10,10,11,11,12,12,13,13,14,14,15,15,16,16,17,17,18,18,19,19,20,20,21,21,22,22,23,23,24,24,25,25,26,26,27,27,28,28,29,29,30,30],"right_children":[2,4,6,8,10,12,14,16,18,20,22,24,26,28,30,32,34,36,38,40,42,44,46,48,50,52,54,56,58,60,62,-1,-1,-1,-1,-1,-1,-1,-1,-1,-1,-1,-1,-1,-1,-1,-1,-1,-1,-1,-1,-1,-1,-1,-1,-1,-1,-1,-1,-1,-1,-1,-1],"split_conditions":[1.35E2,2.0333334E1,4.5491666E2,7.0833335E0,5.7833332E1,1.7E2,1.944E3,1.3E1,1.22E2,6E1,1.51E2,1.8E1,2.21E2,2.69E2,2.6E1,5.3E1,1.3E1,2.6E1,3.6E1,2.4333334E1,6E0,3.9E1,1.19E2,5.8E1,4.15E2,7.85E2,2.5925E2,8E0,1.829E3,5.6E1,2.295E3,-5.5671632E-2,-1.8999511E-2,-4.867308E-2,2.4151686E-3,-4.7588486E-2,-4.0162258E-2,-2.8121963E-2,4.1287307E-2,-3.872874E-2,-2.6698768E-2,-3.281587E-2,-1.3242692E-2,-2.1652075E-2,-6.313302E-3,-1.461907E-3,1.8374335E-2,-2.2528358E-2,4.410708E-3,1.0998612E-2,2.9121557E-2,1.8471222E-2,3.518807E-2,2.652032E-2,3.532311E-2,2.5036914E-2,3.8579654E-2,4.215955E-2,5.0871287E-2,2.4869062E-2,5.6578547E-2,2.3125487E-3,-5.6600824E-2],"split_indices":[14,14,14,14,14,11,11,11,11,11,11,10,0,0,20,2,2,20,10,12,16,10,0,9,0,11,14,20,0,10,11,0,0,0,0,0,0,0,0,0,0,0,0,0,0,0,0,0,0,0,0,0,0,0,0,0,0,0,0,0,0,0,0],"split_type":[0,0,0,0,0,0,0,0,0,0,0,0,0,0,0,0,0,0,0,0,0,0,0,0,0,0,0,0,0,0,0,0,0,0,0,0,0,0,0,0,0,0,0,0,0,0,0,0,0,0,0,0,0,0,0,0,0,0,0,0,0,0,0],"sum_hessian":[2.1879875E5,1.0920613E5,1.0959262E5,6.5122723E4,4.408341E4,3.693017E4,7.2662445E4,4.536448E4,1.9758244E4,2.3331402E4,2.0752008E4,1.5767089E4,2.1163082E4,3.7989734E4,3.4672715E4,4.285694E4,2.5075376E3,1.9471338E4,2.8690555E2,1.8653637E4,4.6777646E3,1.6366413E4,4.385595E3,3.279448E3,1.2487641E4,9.124724E3,1.2038358E4,7.110778E3,3.0878955E4,3.4644477E4,2.8237349E1,4.2730715E4,1.2622625E2,2.322432E3,1.8510571E2,1.6479352E4,2.991987E3,2.4910547E2,3.7800083E1,7.906276E3,1.0747361E4,1.5496797E3,3.128085E3,7.186247E3,9.180166E3,2.7850493E3,1.6005458E3,2.0093086E3,1.2701393E3,1.0221826E4,2.265814E3,7.297906E3,1.8268175E3,3.1838767E3,8.854481E3,3.3154526E3,3.7953254E3,2.4306754E4,6.5722007E3,1.713406E2,3.4473137E4,1.1585997E1,1.6651352E1],"tree_param":{"num_deleted":"0","num_feature":"21","num_nodes":"63","size_leaf_vector":"1"}},{"base_weights":[-1.1329313E-5,-1.2868699E0,1.2816803E0,-1.7299652E0,-6.4404875E-1,6.469169E-1,1.6092911E0,-1.8237884E0,-1.5160782E0,-9.574448E-1,-2.9377142E-1,2.851886E-1,9.1769356E-1,1.3725833E0,1.8716545E0,-1.8440813E0,-1.4789456E0,-1.5294665E0,-6.146077E-1,-1.0372423E0,-6.4058024E-1,-7.400646E-1,-1.5101025E-1,-3.92184E-1,4.6299824E-1,7.0865506E-1,1.0768311E0,1.0529454E0,1.4466821E0,1.8741267E0,-1.0923766E0,-5.5433303E-2,-1.8489646E-2,-4.8164494E-2,2.3432164E-3,-4.7048938E-2,-3.9488684E-2,1.0434753E-3,-4.604759E-2,-3.8042616E-2,-2.605268E-2,-3.212034E-2,-1.2864344E-2,-2.8438464E-2,8.0868015E-3,-9.744842E-3,4.987167E-3,-2.194569E-2,4.279182E-3,1.0679454E-2,2.8449409E-2,1.7968267E-2,3.4488942E-2,2.5876665E-2,3.462361E-2,2.4577895E-2,3.8108937E-2,5.5286624E-2,4.2280897E-2,2.425236E-2,5.6385435E-2,2.2487824E-3,-5.650893E-2],"categories":[],"categories_nodes":[],"categories_segments":[],"categories_sizes":[],"default_left":[0,0,0,0,0,0,0,0,0,0,0,0,0,0,0,0,0,0,0,0,0,0,0,0,0,0,0,0,0,0,0,0,0,0,0,0,0,0,0,0,0,0,0,0,0,0,0,0,0,0,0,0,0,0,0,0,0,0,0,0,0,0,0],"id":1,"left_children":[1,3,5,7,9,11,13,15,17,19,21,23,25,27,29,31,33,35,37,39,41,43,45,47,49,51,53,55,57,59,61,-1,-1,-1,-1,-1,-1,-1,-1,-1,-1,-1,-1,-1,-1,-1,-1,-1,-1,-1,-1,-1,-1,-1,-1,-1,-1,-1,-1,-1,-1,-1,-1],"loss_changes":[3.553677E5,3.0621781E4,2.2446906E4,1.274375E3,4.815658E3,3.59917E3,4.419078E3,3.068125E2,2.3333984E2,5.8478516E2,1.319892E3,1.8951868E3,6.9835156E2,8.850703E2,2.4948438E2,1.88375E2,4.854663E2,1.5625781E2,1.7082272E2,7.1964453E2,4.240298E2,1.0540571E3,8.6569794E2,5.939044E2,6.469348E2,4.389331E2,1.9658594E2,3.569536E2,4.466797E2,1.9219531E2,2.6716885E1,0E0,0E0,0E0,0E0,0E0,0E0,0E0,0E0,0E0,0E0,0E0,0E0,0E0,0E0,0E0,0E0,0E0,0E0,0E0,0E0,0E0,0E0,0E0,0E0,0E0,0E0,0E0,0E0,0E0,0E0,0E0,0E0],"parents":[2147483647,0,0,1,1,2,2,3,3,4,4,5,5,6,6,7,7,8,8,9,9,10,10,11,11,12,12,13,13,14,14,15,15,16,16,17,17,18,18,19,19,20,20,21,21,22,22,23,23,24,24,25,25,26,26,27,27,28,28,29,29,30,30],"right_children":[2,4,6,8,10,12,14,16,18,20,22,24,26,28,30,32,34,36,38,40,42,44,46,48,50,52,54,56,58,60,62,-1,-1,-1,-1,-1,-1,-1,-1,-1,-1,-1,-1,-1,-1,-1,-1,-1,-1,-1,-1,-1,-1,-1,-1,-1,-1,-1,-1,-1,-1,-1,-1],"split_conditions":[1.35E2,2.0333334E1,4.5491666E2,7.0833335E0,5.7833332E1,1.7E2,1.944E3,1.3E1,1.22E2,6E1,1.1E1,1.8E1,2.21E2,2.69E2,2.6E1,5.3E1,1.3E1,2.6E1,1E0,2.4333334E1,6E0,2.44E2,1.04E2,5.8E1,4.15E2,7.85E2,2.5925E2,3.03E2,5E0,5.6E1,2.295E3,-5.5433303E-2,-1.8489646E-2,-4.8164494E-2,2.3432164E-3,-4.7048938E-2,-3.9488684E-2,1.0434753E-3,-4.604759E-2,-3.8042616E-2,-2.605268E-2,-3.212034E-2,-1.2864344E-2,-2.8438464E-2,8.0868015E-3,-9.744842E-3,4.987167E-3,-2.194569E-2,4.279182E-3,1.0679454E-2,2.8449409E-2,1.7968267E-2,3.4488942E-2,2.5876665E-2,3.462361E-2,2.4577895E-2,3.8108937E-2,5.5286624E-2,4.2280897E-2,2.425236E-2,5.6385435E-2,2.2487824E-3,-5.650893E-2],"split_indices":[14,14,14,14,14,11,11,11,11,11,11,10,0,0,20,2,2,20,9,12,16,10,0,9,0,11,14,11,6,10,11,0,0,0,0,0,0,0,0,0,0,0,0,0,0,0,0,0,0,0,0,0,0,0,0,0,0,0,0,0,0,0,0],"split_type":[0,0,0,0,0,0,0,0,0,0,0,0,0,0,0,0,0,0,0,0,0,0,0,0,0,0,0,0,0,0,0,0,0,0,0,0,0,0,0,0,0,0,0,0,0,0,0,0,0,0,0,0,0,0,0,0,0,0,0,0,0,0,0],"sum_hessian":[2.1545644E5,1.0751151E5,1.0794493E5,6.3641715E4,4.3869797E4,3.674755E4,7.1197375E4,4.4231652E4,1.9410062E4,2.3152938E4,2.0716857E4,1.5732578E4,2.1014973E4,3.743197E4,3.376541E4,4.176931E4,2.462342E3,1.9125322E4,2.8473868E2,1.8493385E4,4.6595522E3,5.0198516E3,1.5697007E4,3.2708699E3,1.2461709E4,9.085703E3,1.19292705E4,7.0473296E3,3.0384639E4,3.3737637E4,2.777216E1,4.164346E4,1.2584921E2,2.2772454E3,1.850968E2,1.6172967E4,2.952357E3,1.6750562E2,1.1723305E2,7.8089165E3,1.0684469E4,1.5359718E3,3.1235806E3,4.162785E3,8.5706647E2,1.0140887E4,5.55612E3,2.0009336E3,1.2699363E3,1.0211675E4,2.2500334E3,7.277464E3,1.8082391E3,3.1654895E3,8.76378E3,3.39839E3,3.6489397E3,2.611414E3,2.7773225E4,1.7046559E2,3.356717E4,1.15854435E1,1.6186714E1],"tree_param":{"num_deleted":"0","num_feature":"21","num_nodes":"63","size_leaf_vector":"1"}},{"base_weights":[-2.351686E-5,-1.308573E0,1.2231885E0,-1.7172E0,-6.78163E-1,5.7633483E-1,1.5930957E0,-1.8146561E0,-1.4967381E0,-9.5135933E-1,-3.5642064E-1,1.6435504E-1,8.5029787E-1,1.3509724E0,1.864695E0,-1.8356438E0,-1.4607552E0,-1.5101811E0,-6.0082465E-1,-1.0821093E0,-7.738526E-1,-7.565036E-1,-2.186648E-1,-4.54217E-1,3.9565662E-1,6.4599675E-1,1.032548E0,1.0303385E0,1.4258316E0,1.867175E0,-1.0788647E0,-5.5183496E-2,-1.7990598E-2,-4.7641296E-2,2.2734036E-3,-4.6495344E-2,-3.880882E-2,-2.705593E-2,4.0642373E-2,-3.6754493E-2,-2.4966639E-2,6.3778153E-3,-2.4767399E-2,-2.7828192E-2,5.0921077E-3,-8.816238E-3,1.1832385E-2,-2.4978112E-2,-2.227573E-3,7.488343E-3,2.7843134E-2,1.7629815E-2,4.0673845E-2,1.7544134E-2,3.3099152E-2,2.3628991E-2,3.7326146E-2,4.0830664E-2,5.003834E-2,5.137095E-2,5.7199378E-2,2.186772E-3,-5.641486E-2],"categories":[],"categories_nodes":[],"categories_segments":[],"categories_sizes":[],"default_left":[0,0,0,0,0,0,0,0,0,0,0,0,0,0,0,0,0,0,0,0,0,0,0,0,0,0,0,0,0,0,0,0,0,0,0,0,0,0,0,0,0,0,0,0,0,0,0,0,0,0,0,0,0,0,0,0,0,0,0,0,0,0,0],"id":2,"left_children":[1,3,5,7,9,11,13,15,17,19,21,23,25,27,29,31,33,35,37,39,41,43,45,47,49,51,53,55,57,59,61,-1,-1,-1,-1,-1,-1,-1,-1,-1,-1,-1,-1,-1,-1,-1,-1,-1,-1,-1,-1,-1,-1,-1,-1,-1,-1,-1,-1,-1,-1,-1,-1],"loss_changes":[3.397177E5,2.6414125E4,2.6246828E4,1.334E3,3.544545E3,4.504422E3,4.5867344E3,3.1773438E2,2.2885547E2,5.0533398E2,1.0205842E3,2.2810005E3,8.918301E2,8.842031E2,2.4210156E2,1.904375E2,4.7341943E2,1.5942969E2,1.682248E2,4.4779102E2,4.7238184E2,7.5188525E2,6.3543414E2,6.237765E2,9.020509E2,4.672666E2,4.0065918E2,3.6174072E2,4.6709766E2,1.9753906E2,2.6285114E1,0E0,0E0,0E0,0E0,0E0,0E0,0E0,0E0,0E0,0E0,0E0,0E0,0E0,0E0,0E0,0E0,0E0,0E0,0E0,0E0,0E0,0E0,0E0,0E0,0E0,0E0,0E0,0E0,0E0,0E0,0E0,0E0],"parents":[2147483647,0,0,1,1,2,2,3,3,4,4,5,5,6,6,7,7,8,8,9,9,10,10,11,11,12,12,13,13,14,14,15,15,16,16,17,17,18,18,19,19,20,20,21,21,22,22,23,23,24,24,25,25,26,26,27,27,28,28,29,29,30,30],"right_children":[2,4,6,8,10,12,14,16,18,20,22,24,26,28,30,32,34,36,38,40,42,44,46,48,50,52,54,56,58,60,62,-1,-1,-1,-1,-1,-1,-1,-1,-1,-1,-1,-1,-1,-1,-1,-1,-1,-1,-1,-1,-1,-1,-1,-1,-1,-1,-1,-1,-1,-1,-1,-1],"split_conditions":[1.18333336E2,2.0333334E1,4.5491666E2,7.0833335E0,5.4666668E1,1.38E2,1.944E3,1.3E1,1.22E2,2.3E1,1.1E1,2.8E1,2.5925E2,2.69E2,2.6E1,5.3E1,1.3E1,2.6E1,3.6E1,4.0666668E1,1.8333334E0,2.54E2,3.28E2,2.5E1,4.46E2,1.088E3,1.19E2,8E0,1.829E3,1.4355834E3,2.295E3,-5.5183496E-2,-1.7990598E-2,-4.7641296E-2,2.2734036E-3,-4.6495344E-2,-3.880882E-2,-2.705593E-2,4.0642373E-2,-3.6754493E-2,-2.4966639E-2,6.3778153E-3,-2.4767399E-2,-2.7828192E-2,5.0921077E-3,-8.816238E-3,1.1832385E-2,-2.4978112E-2,-2.227573E-3,7.488343E-3,2.7843134E-2,1.7629815E-2,4.0673845E-2,1.7544134E-2,3.3099152E-2,2.3628991E-2,3.7326146E-2,4.0830664E-2,5.003834E-2,5.137095E-2,5.7199378E-2,2.186772E-3,-5.641486E-2],"split_indices":[14,14,14,14,14,11,11,11,11,11,11,10,14,0,20,2,2,20,10,12,13,10,11,9,9,11,0,20,0,14,11,0,0,0,0,0,0,0,0,0,0,0,0,0,0,0,0,0,0,0,0,0,0,0,0,0,0,0,0,0,0,0,0],"split_type":[0,0,0,0,0,0,0,0,0,0,0,0,0,0,0,0,0,0,0,0,0,0,0,0,0,0,0,0,0,0,0,0,0,0,0,0,0,0,0,0,0,0,0,0,0,0,0,0,0,0,0,0,0,0,0,0,0,0,0,0,0,0,0],"sum_hessian":[2.122375E5,1.025418E5,1.096957E5,6.221366E4,4.0328137E4,3.9909258E4,6.9786445E4,4.313737E4,1.907629E4,2.1808365E4,1.8519773E4,1.5940249E4,2.3969008E4,3.6898465E4,3.2887984E4,4.071842E4,2.4189473E3,1.879361E4,2.826789E2,1.2555208E4,9.253158E3,4.7422915E3,1.3777481E4,4.338035E3,1.1602214E4,1.130298E4,1.2666026E4,6.98696E3,2.9911504E4,3.2860664E4,2.7320688E1,4.059293E4,1.254932E2,2.233859E3,1.850884E2,1.5879058E4,2.914552E3,2.4543549E2,3.724341E1,7.9821655E3,4.573042E3,4.6088742E2,8.7922705E3,4.0028506E3,7.3944116E2,1.2272467E4,1.5050144E3,2.1729336E3,2.1651018E3,9.105997E3,2.496216E3,1.0446262E4,8.567195E2,1.729735E3,1.0936292E4,3.275009E3,3.711951E3,2.3600645E4,6.310859E3,6.6851445E3,2.6175518E4,1.1584921E1,1.5735767E1],"tree_param":{"num_deleted":"0","num_feature":"21","num_nodes":"63","size_leaf_vector":"1"}},{"base_weights":[-3.374238E-5,-1.2490582E0,1.2426383E0,-1.703978E0,-6.123016E-1,6.151365E-1,1.5764949E0,-1.806955E0,-1.48098E0,-9.143637E-1,-2.7830994E-1,2.7027744E-1,8.7557375E-1,1.3291198E0,1.8573953E0,-1.8288292E0,-1.4350996E0,-1.4941957E0,-5.8692306E-1,-9.9287105E-1,-6.051954E-1,-4.0341315E-1,1.8685167E-1,-3.4769288E-1,4.4400668E-1,6.709227E-1,1.0326717E0,1.0968732E0,1.434072E0,6.631068E-1,1.8638586E0,-5.497878E-2,-1.6840082E-2,-4.701779E-2,4.1251327E-3,-4.148932E-2,-4.729263E-2,1.378189E-3,-4.5139965E-2,-3.67486E-2,-2.4750132E-2,-3.0950338E-2,-1.1920953E-2,-2.026502E-2,-5.7697454E-3,-1.2481993E-3,1.7577756E-2,-2.1020215E-2,3.1060372E-3,9.8522445E-3,2.646521E-2,-3.853278E-2,2.0870425E-2,2.8780356E-2,3.805853E-2,2.6173532E-2,3.7465967E-2,5.527516E-2,4.1702352E-2,-3.179073E-2,3.4005105E-2,5.3298127E-2,5.7947002E-2],"categories":[],"categories_nodes":[],"categories_segments":[],"categories_sizes":[],"default_left":[0,0,0,0,0,0,0,0,0,0,0,0,0,0,0,0,0,0,0,0,0,0,0,0,0,0,0,0,0,0,0,0,0,0,0,0,0,0,0,0,0,0,0,0,0,0,0,0,0,0,0,0,0,0,0,0,0,0,0,0,0,0,0],"id":3,"left_children":[1,3,5,7,9,11,13,15,17,19,21,23,25,27,29,31,33,35,37,39,41,43,45,47,49,51,53,55,57,59,61,-1,-1,-1,-1,-1,-1,-1,-1,-1,-1,-1,-1,-1,-1,-1,-1,-1,-1,-1,-1,-1,-1,-1,-1,-1,-1,-1,-1,-1,-1,-1,-1],"loss_changes":[3.2461262E5,3.0212906E4,2.196186E4,1.3944062E3,4.384925E3,3.2698018E3,4.7525E3,3.35875E2,2.2626953E2,5.5338086E2,1.2014003E3,1.6821451E3,6.6619824E2,8.8541016E2,2.4608594E2,1.8807812E2,4.8168506E2,1.710625E2,1.6366983E2,7.0805273E2,4.0949365E2,9.3425684E2,3.9899188E2,5.4773535E2,6.1914844E2,4.3712354E2,2.0177832E2,3.853916E2,4.4773047E2,1.4222693E2,1.8483594E2,0E0,0E0,0E0,0E0,0E0,0E0,0E0,0E0,0E0,0E0,0E0,0E0,0E0,0E0,0E0,0E0,0E0,0E0,0E0,0E0,0E0,0E0,0E0,0E0,0E0,0E0,0E0,0E0,0E0,0E0,0E0,0E0],"parents":[2147483647,0,0,1,1,2,2,3,3,4,4,5,5,6,6,7,7,8,8,9,9,10,10,11,11,12,12,13,13,14,14,15,15,16,16,17,17,18,18,19,19,20,20,21,21,22,22,23,23,24,24,25,25,26,26,27,27,28,28,29,29,30,30],"right_children":[2,4,6,8,10,12,14,16,18,20,22,24,26,28,30,32,34,36,38,40,42,44,46,48,50,52,54,56,58,60,62,-1,-1,-1,-1,-1,-1,-1,-1,-1,-1,-1,-1,-1,-1,-1,-1,-1,-1,-1,-1,-1,-1,-1,-1,-1,-1,-1,-1,-1,-1,-1,-1],"split_conditions":[1.35E2,2.0333334E1,4.5491666E2,6.9166665E0,5.7833332E1,1.7E2,1.944E3,1.3E1,1.22E2,6E1,1.51E2,2.3E1,2.21E2,4.15E2,5.6E1,5.3E1,1.3E1,-2.4492937E-16,1E0,2.4333334E1,6E0,3.9E1,1.19E2,1.5E1,4.46E2,2E0,6.77E2,3.03E2,5E0,9.8E1,5.751E3,-5.497878E-2,-1.6840082E-2,-4.701779E-2,4.1251327E-3,-4.148932E-2,-4.729263E-2,1.378189E-3,-4.5139965E-2,-3.67486E-2,-2.4750132E-2,-3.0950338E-2,-1.1920953E-2,-2.026502E-2,-5.7697454E-3,-1.2481993E-3,1.7577756E-2,-2.1020215E-2,3.1060372E-3,9.8522445E-3,2.646521E-2,-3.853278E-2,2.0870425E-2,2.8780356E-2,3.805853E-2,2.6173532E-2,3.7465967E-2,5.527516E-2,4.1702352E-2,-3.179073E-2,3.4005105E-2,5.3298127E-2,5.7947002E-2],"split_indices":[14,14,14,14,14,11,11,11,11,11,11,10,0,0,10,2,2,17,9,12,16,10,0,11,9,12,11,11,6,0,11,0,0,0,0,0,0,0,0,0,0,0,0,0,0,0,0,0,0,0,0,0,0,0,0,0,0,0,0,0,0,0,0],"split_type":[0,0,0,0,0,0,0,0,0,0,0,0,0,0,0,0,0,0,0,0,0,0,0,0,0,0,0,0,0,0,0,0,0,0,0,0,0,0,0,0,0,0,0,0,0,0,0,0,0,0,0,0,0,0,0,0,0,0,0,0,0,0,0],"sum_hessian":[2.0913836E5,1.04302586E5,1.0483578E5,6.083699E4,4.3465598E4,3.6407926E4,6.842786E4,4.161343E4,1.9223557E4,2.2822861E4,2.0642734E4,1.56659E4,2.0742025E4,3.638825E4,3.2039607E4,3.929784E4,2.3155898E3,1.8942877E4,2.8067926E2,1.819929E4,4.6235728E3,1.6267732E4,4.3750034E3,3.4374795E3,1.2228421E4,9.009996E3,1.173203E4,1.13293125E4,2.5058936E4,1.7302023E2,3.1866588E4,3.9180027E4,1.1781356E2,2.1360793E3,1.795105E2,8.0594478E3,1.088343E4,1.6668529E2,1.1399396E2,7.635967E3,1.0563321E4,1.5135978E3,3.1099749E3,7.106032E3,9.1617E3,2.7828157E3,1.5921875E3,1.9284001E3,1.5090793E3,9.677122E3,2.551298E3,1.1202001E2,8.897977E3,8.954309E3,2.7777214E3,4.5773843E3,6.7519287E3,2.432734E3,2.2626201E4,3.684072E1,1.3617952E2,1.3935458E4,1.7931129E4],"tree_param":{"num_deleted":"0","num_feature":"21","num_nodes":"63","size_leaf_vector":"1"}},{"base_weights":[-4.40899E-5,-1.2702065E0,1.1840813E0,-1.6903061E0,-6.4451265E-1,5.4733026E-1,1.5595145E0,-1.7970903E0,-1.4609187E0,-9.0838015E-1,-3.3698794E-1,1.5502961E-1,8.101977E-1,1.3070477E0,1.8497934E0,-1.819681E0,-1.4161853E0,-1.3338675E0,-1.5563763E0,-1.0376357E0,-7.341691E-1,-4.904898E-1,1.0068536E-2,-4.3133467E-1,3.7398255E-1,6.107303E-1,9.8961973E-1,1.1152166E0,1.4362243E0,6.4935666E-1,1.8563995E0,-5.470755E-2,-1.6377853E-2,-4.6464E-2,4.0026335E-3,-4.084798E-2,8.493816E-3,-4.7193844E-2,-2.7542772E-2,-3.5416886E-2,-2.3721082E-2,6.7896284E-3,-2.355128E-2,-2.5034677E-2,-1.05787115E-2,2.901696E-2,-2.3129506E-3,-2.404045E-2,-1.8844599E-3,3.9281134E-4,1.7156875E-2,1.6599698E-2,3.9640456E-2,1.6542027E-2,3.178947E-2,1.8246159E-2,3.516492E-2,5.548172E-2,4.160235E-2,-3.1124502E-2,3.3313505E-2,5.2952904E-2,5.782684E-2],"categories":[],"categories_nodes":[],"categories_segments":[],"categories_sizes":[],"default_left":[0,0,0,0,0,0,0,0,0,0,0,0,0,0,0,0,0,0,0,0,0,0,0,0,0,0,0,0,0,0,0,0,0,0,0,0,0,0,0,0,0,0,0,0,0,0,0,0,0,0,0,0,0,0,0,0,0,0,0,0,0,0,0],"id":4,"left_children":[1,3,5,7,9,11,13,15,17,19,21,23,25,27,29,31,33,35,37,39,41,43,45,47,49,51,53,55,57,59,61,-1,-1,-1,-1,-1,-1,-1,-1,-1,-1,-1,-1,-1,-1,-1,-1,-1,-1,-1,-1,-1,-1,-1,-1,-1,-1,-1,-1,-1,-1,-1,-1],"loss_changes":[3.1007762E5,2.6144578E4,2.5505594E4,1.4551094E3,3.242162E3,4.081124E3,4.916547E3,3.468125E2,2.272539E2,4.8348633E2,9.831387E2,2.0389554E3,8.474951E2,8.880469E2,2.4636719E2,1.8957812E2,4.68292E2,3.64458E2,1.1393555E2,4.346953E2,4.479204E2,6.065261E2,4.723231E2,5.887441E2,8.258861E2,4.571631E2,3.8221777E2,4.1654883E2,4.3596484E2,1.352463E2,1.9834375E2,0E0,0E0,0E0,0E0,0E0,0E0,0E0,0E0,0E0,0E0,0E0,0E0,0E0,0E0,0E0,0E0,0E0,0E0,0E0,0E0,0E0,0E0,0E0,0E0,0E0,0E0,0E0,0E0,0E0,0E0,0E0,0E0],"parents":[2147483647,0,0,1,1,2,2,3,3,4,4,5,5,6,6,7,7,8,8,9,9,10,10,11,11,12,12,13,13,14,14,15,15,16,16,17,17,18,18,19,19,20,20,21,21,22,22,23,23,24,24,25,25,26,26,27,27,28,28,29,29,30,30],"right_children":[2,4,6,8,10,12,14,16,18,20,22,24,26,28,30,32,34,36,38,40,42,44,46,48,50,52,54,56,58,60,62,-1,-1,-1,-1,-1,-1,-1,-1,-1,-1,-1,-1,-1,-1,-1,-1,-1,-1,-1,-1,-1,-1,-1,-1,-1,-1,-1,-1,-1,-1,-1,-1],"split_conditions":[1.18333336E2,2.0333334E1,4.5491666E2,6.9166665E0,5.4666668E1,1.38E2,1.944E3,1.3E1,-2.4492937E-16,2.3E1,1E2,2.8E1,2.5925E2,5.12E2,5.6E1,5.3E1,1.3E1,1.38E2,8.6E1,4.0666668E1,1.8333334E0,1.1E1,4.0833332E1,2.5E1,1.6933333E2,1.088E3,1.19E2,5.6E1,5E0,9.8E1,5.751E3,-5.470755E-2,-1.6377853E-2,-4.6464E-2,4.0026335E-3,-4.084798E-2,8.493816E-3,-4.7193844E-2,-2.7542772E-2,-3.5416886E-2,-2.3721082E-2,6.7896284E-3,-2.355128E-2,-2.5034677E-2,-1.05787115E-2,2.901696E-2,-2.3129506E-3,-2.404045E-2,-1.8844599E-3,3.9281134E-4,1.7156875E-2,1.6599698E-2,3.9640456E-2,1.6542027E-2,3.178947E-2,1.8246159E-2,3.516492E-2,5.548172E-2,4.160235E-2,-3.1124502E-2,3.3313505E-2,5.2952904E-2,5.782684E-2],"split_indices":[14,14,14,14,14,11,11,11,17,11,0,10,14,0,10,2,2,11,10,12,13,11,13,9,14,11,0,10,6,0,11,0,0,0,0,0,0,0,0,0,0,0,0,0,0,0,0,0,0,0,0,0,0,0,0,0,0,0,0,0,0,0,0],"split_type":[0,0,0,0,0,0,0,0,0,0,0,0,0,0,0,0,0,0,0,0,0,0,0,0,0,0,0,0,0,0,0,0,0,0,0,0,0,0,0,0,0,0,0,0,0,0,0,0,0,0,0,0,0,0,0,0,0,0,0,0,0,0,0],"sum_hessian":[2.0616231E5,9.946753E4,1.0669478E5,5.950999E4,3.9957547E4,3.9575492E4,6.711929E4,4.0602098E4,1.8907889E4,2.1504197E4,1.8453348E4,1.5879169E4,2.3696322E4,3.590062E4,3.121867E4,3.8325316E4,2.2767817E3,8.1180273E3,1.0789861E4,1.2342066E4,9.162132E3,1.2794134E4,5.6592144E3,4.31703E3,1.156214E4,1.1223413E4,1.2472909E4,1.4450636E4,2.1449984E4,1.7140392E2,3.1047266E4,3.820778E4,1.1753694E2,2.0972964E3,1.7948528E2,7.9813047E3,1.367228E2,1.0512495E4,2.773661E2,7.814929E3,4.527137E3,4.6069882E2,8.701433E3,3.6590715E3,9.135062E3,4.7151367E2,5.1877007E3,2.1535613E3,2.1634683E3,4.0953892E3,7.4667505E3,1.038615E4,8.372624E2,1.7198097E3,1.0753099E4,1.4603755E3,1.299026E4,2.2901577E3,1.9159826E4,3.6526665E1,1.3487726E2,1.3610459E4,1.7436807E4],"tree_param":{"num_deleted":"0","num_feature":"21","num_nodes":"63","size_leaf_vector":"1"}},{"base_weights":[-5.317594E-5,-1.2507157E0,1.1643237E0,-1.6762062E0,-6.279404E-1,5.3305817E-1,1.5421484E0,-1.7867992E0,-1.4405705E0,-8.87056E-1,-3.274364E-1,1.5064886E-1,7.902229E-1,1.2847862E0,1.8418334E0,-1.8101163E0,-1.3969204E0,-1.3118106E0,-1.537757E0,-1.0149853E0,-7.1530354E-1,-4.72491E-1,2.0419536E-2,-4.1942832E-1,3.6334503E-1,5.942664E-1,9.672694E-1,9.596584E-1,1.36219E0,6.35647E-1,1.8485842E0,-5.4423824E-2,-1.5926274E-2,-4.5896567E-2,3.8837392E-3,-4.01815E-2,8.245809E-3,-4.84158E-2,-4.1658174E-2,-3.4717485E-2,-2.3118036E-2,6.5889102E-3,-2.2950927E-2,-2.4418002E-2,-1.0130908E-2,3.0683408E-2,-2.0281936E-3,-2.2082612E-2,1.393441E-4,6.738154E-3,2.6275197E-2,1.6138824E-2,3.896297E-2,1.6082741E-2,3.1097827E-2,2.1381097E-2,3.5409197E-2,5.4833166E-2,3.9701056E-2,-3.0461716E-2,3.262327E-2,5.2593462E-2,5.770005E-2],"categories":[],"categories_nodes":[],"categories_segments":[],"categories_sizes":[],"default_left":[0,0,0,0,0,0,0,0,0,0,0,0,0,0,0,0,0,0,0,0,0,0,0,0,0,0,0,0,0,0,0,0,0,0,0,0,0,0,0,0,0,0,0,0,0,0,0,0,0,0,0,0,0,0,0,0,0,0,0,0,0,0,0],"id":5,"left_children":[1,3,5,7,9,11,13,15,17,19,21,23,25,27,29,31,33,35,37,39,41,43,45,47,49,51,53,55,57,59,61,-1,-1,-1,-1,-1,-1,-1,-1,-1,-1,-1,-1,-1,-1,-1,-1,-1,-1,-1,-1,-1,-1,-1,-1,-1,-1,-1,-1,-1,-1,-1,-1],"loss_changes":[2.9605044E5,2.5971984E4,2.510939E4,1.5149219E3,3.097707E3,3.8766064E3,5.0773125E3,3.5771094E2,2.3080469E2,4.6868555E2,9.296312E2,1.9222386E3,8.171455E2,8.9046875E2,2.4657812E2,1.9089062E2,4.5493408E2,3.5078027E2,1.1804297E2,4.2471777E2,4.243286E2,5.9813135E2,4.7853442E2,5.784754E2,8.206996E2,4.4318237E2,3.695244E2,3.7064062E2,5.148594E2,1.2855945E2,2.1255469E2,0E0,0E0,0E0,0E0,0E0,0E0,0E0,0E0,0E0,0E0,0E0,0E0,0E0,0E0,0E0,0E0,0E0,0E0,0E0,0E0,0E0,0E0,0E0,0E0,0E0,0E0,0E0,0E0,0E0,0E0,0E0,0E0],"parents":[2147483647,0,0,1,1,2,2,3,3,4,4,5,5,6,6,7,7,8,8,9,9,10,10,11,11,12,12,13,13,14,14,15,15,16,16,17,17,18,18,19,19,20,20,21,21,22,22,23,23,24,24,25,25,26,26,27,27,28,28,29,29,30,30],"right_children":[2,4,6,8,10,12,14,16,18,20,22,24,26,28,30,32,34,36,38,40,42,44,46,48,50,52,54,56,58,60,62,-1,-1,-1,-1,-1,-1,-1,-1,-1,-1,-1,-1,-1,-1,-1,-1,-1,-1,-1,-1,-1,-1,-1,-1,-1,-1,-1,-1,-1,-1,-1,-1],"split_conditions":[1.18333336E2,2.0333334E1,4.5491666E2,6.9166665E0,5.4666668E1,1.38E2,1.944E3,1.3E1,-2.4492937E-16,2.3E1,1.04E2,2.8E1,2.5925E2,2.69E2,5.6E1,5.3E1,1.3E1,1.38E2,1.425E1,4.0666668E1,1.8333334E0,1.1E1,4.0833332E1,1.5E1,4.46E2,1.088E3,1.19E2,8E0,4E0,9.8E1,5.751E3,-5.4423824E-2,-1.5926274E-2,-4.5896567E-2,3.8837392E-3,-4.01815E-2,8.245809E-3,-4.84158E-2,-4.1658174E-2,-3.4717485E-2,-2.3118036E-2,6.5889102E-3,-2.2950927E-2,-2.4418002E-2,-1.0130908E-2,3.0683408E-2,-2.0281936E-3,-2.2082612E-2,1.393441E-4,6.738154E-3,2.6275197E-2,1.6138824E-2,3.896297E-2,1.6082741E-2,3.1097827E-2,2.1381097E-2,3.5409197E-2,5.4833166E-2,3.9701056E-2,-3.0461716E-2,3.262327E-2,5.2593462E-2,5.770005E-2],"split_indices":[14,14,14,14,14,11,11,11,17,11,0,10,14,0,10,2,2,11,14,12,13,11,13,11,9,11,0,20,6,0,11,0,0,0,0,0,0,0,0,0,0,0,0,0,0,0,0,0,0,0,0,0,0,0,0,0,0,0,0,0,0,0,0],"split_type":[0,0,0,0,0,0,0,0,0,0,0,0,0,0,0,0,0,0,0,0,0,0,0,0,0,0,0,0,0,0,0,0,0,0,0,0,0,0,0,0,0,0,0,0,0,0,0,0,0,0,0,0,0,0,0,0,0,0,0,0,0,0,0],"sum_hessian":[2.032955E5,9.801599E4,1.0527951E5,5.823035E4,3.978564E4,3.9419777E4,6.5859734E4,3.962584E4,1.8604512E4,2.1363008E4,1.8422633E4,1.5850836E4,2.356894E4,3.5434625E4,3.0425105E4,3.738627E4,2.2395706E3,8.008613E3,1.0595899E4,1.2240673E4,9.122335E3,1.3000934E4,5.421698E3,4.306745E3,1.1544091E4,1.1189106E4,1.2379834E4,6.816388E3,2.8618238E4,1.6986742E2,3.0255238E4,3.7268992E4,1.1727592E2,2.060109E3,1.7946155E2,7.871971E3,1.3664122E2,7.0095327E3,3.5863672E3,7.73445E3,4.506222E3,4.6052414E2,8.661811E3,3.67836E3,9.322573E3,4.3683176E2,4.9848667E3,2.4652144E3,1.8415309E3,9.0858545E3,2.458236E3,1.0362657E4,8.2644934E2,1.7159445E3,1.066389E4,3.2184475E3,3.5979404E3,2.1990547E3,2.6419184E4,3.622813E1,1.3363928E2,1.3297138E4,1.69581E4],"tree_param":{"num_deleted":"0","num_feature":"21","num_nodes":"63","size_leaf_vector":"1"}},{"base_weights":[-6.1522725E-5,-1.1911817E0,1.1831148E0,-1.6616471E0,-5.666187E-1,5.93928E-1,1.5398904E0,-1.7760718E0,-1.4198712E0,-8.5159564E-1,-2.5612482E-1,2.5694305E-1,8.373874E-1,1.2807685E0,1.834267E0,-1.8001236E0,-1.3773218E0,-1.2895352E0,-1.5187016E0,-8.819953E-1,-6.423008E-2,-4.4230387E-1,3.41773E-2,-3.436529E-1,4.1138738E-1,7.448068E-1,1.1941762E0,9.4928443E-1,1.3581375E0,1.6433873E0,1.8812698E0,-5.4127246E-2,-1.5485268E-2,-4.531593E-2,3.7683444E-3,-4.007249E-2,-1.0651709E-2,-4.7899306E-2,-4.100183E-2,-3.087174E-2,-2.0806344E-2,2.9104305E-3,-3.573252E-2,-2.7133252E-2,-7.91236E-3,1.4198072E-2,-3.001975E-3,1.285468E-2,-1.6721737E-2,8.926547E-3,2.7061716E-2,1.2348761E-2,2.6799293E-2,-5.804422E-2,3.694815E-2,1.974953E-2,3.592101E-2,5.4557577E-2,3.946551E-2,2.638933E-2,5.0038498E-2,-4.439115E-2,5.6586668E-2],"categories":[],"categories_nodes":[],"categories_segments":[],"categories_sizes":[],"default_left":[0,0,0,0,0,0,0,0,0,0,0,0,0,0,0,0,0,0,0,0,0,0,0,0,0,0,0,0,0,0,0,0,0,0,0,0,0,0,0,0,0,0,0,0,0,0,0,0,0,0,0,0,0,0,0,0,0,0,0,0,0,0,0],"id":6,"left_children":[1,3,5,7,9,11,13,15,17,19,21,23,25,27,29,31,33,35,37,39,41,43,45,47,49,51,53,55,57,59,61,-1,-1,-1,-1,-1,-1,-1,-1,-1,-1,-1,-1,-1,-1,-1,-1,-1,-1,-1,-1,-1,-1,-1,-1,-1,-1,-1,-1,-1,-1,-1,-1],"loss_changes":[2.82624E5,2.9363562E4,2.1147281E4,1.5743594E3,3.79904E3,3.1129463E3,4.7774062E3,3.6853906E2,2.3395703E2,5.3582324E2,1.1107148E3,1.4766104E3,7.267832E2,8.534961E2,2.6008594E2,1.919375E2,4.4162158E2,3.4092285E2,1.2113867E2,5.966875E2,1.51533E2,1.0329387E3,4.7341467E2,5.3767163E2,7.0697046E2,8.651885E2,5.3372217E2,4.547212E2,5.278672E2,1.0740918E2,3.944453E2,0E0,0E0,0E0,0E0,0E0,0E0,0E0,0E0,0E0,0E0,0E0,0E0,0E0,0E0,0E0,0E0,0E0,0E0,0E0,0E0,0E0,0E0,0E0,0E0,0E0,0E0,0E0,0E0,0E0,0E0,0E0,0E0],"parents":[2147483647,0,0,1,1,2,2,3,3,4,4,5,5,6,6,7,7,8,8,9,9,10,10,11,11,12,12,13,13,14,14,15,15,16,16,17,17,18,18,19,19,20,20,21,21,22,22,23,23,24,24,25,25,26,26,27,27,28,28,29,29,30,30],"right_children":[2,4,6,8,10,12,14,16,18,20,22,24,26,28,30,32,34,36,38,40,42,44,46,48,50,52,54,56,58,60,62,-1,-1,-1,-1,-1,-1,-1,-1,-1,-1,-1,-1,-1,-1,-1,-1,-1,-1,-1,-1,-1,-1,-1,-1,-1,-1,-1,-1,-1,-1,-1,-1],"split_conditions":[1.35E2,2.0333334E1,4.8241666E2,6.9166665E0,5.7833332E1,1.7E2,1.944E3,1.3E1,-2.4492937E-16,2.13E2,8E1,1.8E1,7.85E2,2.69E2,1.4355834E3,5.3E1,1.3E1,3.4E1,1.425E1,2.3E1,1.6E1,1.1E1,3E0,-5E-1,4.15E2,1.73E2,2E0,8E0,5E0,6.170833E2,2.2E1,-5.4127246E-2,-1.5485268E-2,-4.531593E-2,3.7683444E-3,-4.007249E-2,-1.0651709E-2,-4.7899306E-2,-4.100183E-2,-3.087174E-2,-2.0806344E-2,2.9104305E-3,-3.573252E-2,-2.7133252E-2,-7.91236E-3,1.4198072E-2,-3.001975E-3,1.285468E-2,-1.6721737E-2,8.926547E-3,2.7061716E-2,1.2348761E-2,2.6799293E-2,-5.804422E-2,3.694815E-2,1.974953E-2,3.592101E-2,5.4557577E-2,3.946551E-2,2.638933E-2,5.0038498E-2,-4.439115E-2,5.6586668E-2],"split_indices":[14,14,14,14,14,11,11,11,17,0,10,10,11,0,14,2,2,19,14,11,9,11,5,17,0,0,12,20,6,14,1,0,0,0,0,0,0,0,0,0,0,0,0,0,0,0,0,0,0,0,0,0,0,0,0,0,0,0,0,0,0,0,0],"split_type":[0,0,0,0,0,0,0,0,0,0,0,0,0,0,0,0,0,0,0,0,0,0,0,0,0,0,0,0,0,0,0,0,0,0,0,0,0,0,0,0,0,0,0,0,0,0,0,0,0,0,0,0,0,0,0,0,0,0,0,0,0,0,0],"sum_hessian":[2.0053938E5,9.993421E4,1.0060517E5,5.6997766E4,4.293644E4,3.7944875E4,6.2660297E4,3.8683684E4,1.831408E4,2.2387262E4,2.0549182E4,1.5916319E4,2.2028555E4,3.3328535E4,2.9331762E4,3.6479777E4,2.2039062E3,7.904189E3,1.0409892E4,2.1554918E4,8.323426E2,1.2519527E4,8.0296533E3,3.25545E3,1.2660869E4,1.7492611E4,4.535944E3,6.3094116E3,2.7019125E4,5.802723E3,2.352904E4,3.636275E4,1.1702963E2,2.0244672E3,1.7943921E2,7.5313003E3,3.7288898E2,6.8746294E3,3.535262E3,1.2104429E4,9.450489E3,7.289493E2,1.0339332E2,3.487989E3,9.031538E3,1.8795066E3,6.1501465E3,7.0556177E2,2.5498882E3,1.0277978E4,2.3828923E3,5.394123E3,1.2098488E4,5.3018147E1,4.482926E3,2.9054146E3,3.4039973E3,2.285558E3,2.4733566E4,1.8195285E2,5.62077E3,3.4181103E1,2.3494857E4],"tree_param":{"num_deleted":"0","num_feature":"21","num_nodes":"63","size_leaf_vector":"1"}},{"base_weights":[-6.953874E-5,-1.2314211E0,1.1067717E0,-1.6466298E0,-6.1935574E-1,4.8385715E-1,1.5064579E0,-1.7648984E0,-1.3988452E0,-8.7016296E-1,-3.5827556E-1,1.2357263E-1,7.388603E-1,1.2399557E0,1.8249071E0,-1.7896918E0,-1.3574072E0,-1.2670791E0,-1.4992214E0,-9.6346736E-1,-6.357223E-1,-5.0248116E-1,5.07866E-3,-3.9818338E-1,3.1348673E-1,5.435848E-1,9.249941E-1,1.0444404E0,1.3737154E0,1.6342058E0,1.8748357E0,-5.381748E-2,-1.5054744E-2,-4.4722557E-2,3.656351E-3,-3.8856298E-2,9.173536E-3,-4.5522418E-2,-2.4773274E-2,-3.4493547E-2,-2.3825275E-2,-5.5537038E-3,-2.4483332E-2,-2.1804536E-2,-9.933202E-3,-2.7409608E-3,2.9393284E-2,-2.2373985E-2,-1.4393001E-3,-4.6234502E-4,1.6004262E-2,1.4711856E-2,3.7719183E-2,1.5169951E-2,2.979129E-2,1.6074663E-2,3.307667E-2,5.4718506E-2,3.9648812E-2,1.9672086E-2,4.964296E-2,-4.381721E-2,5.6393996E-2],"categories":[],"categories_nodes":[],"categories_segments":[],"categories_sizes":[],"default_left":[0,0,0,0,0,0,0,0,0,0,0,0,0,0,0,0,0,0,0,0,0,0,0,0,0,0,0,0,0,0,0,0,0,0,0,0,0,0,0,0,0,0,0,0,0,0,0,0,0,0,0,0,0,0,0,0,0,0,0,0,0,0,0],"id":7,"left_children":[1,3,5,7,9,11,13,15,17,19,21,23,25,27,29,31,33,35,37,39,41,43,45,47,49,51,53,55,57,59,61,-1,-1,-1,-1,-1,-1,-1,-1,-1,-1,-1,-1,-1,-1,-1,-1,-1,-1,-1,-1,-1,-1,-1,-1,-1,-1,-1,-1,-1,-1,-1,-1],"loss_changes":[2.6970056E5,2.3804828E4,2.594486E4,1.6330938E3,2.479004E3,3.7421865E3,5.3851094E3,3.792422E2,2.3666406E2,4.2180176E2,9.721582E2,1.6730164E3,8.664238E2,9.024258E2,2.7228125E2,1.9279688E2,4.2837158E2,3.4576074E2,1.2411328E2,4.347256E2,4.469436E2,5.1039697E2,4.9570508E2,5.484792E2,8.9560706E2,4.4134888E2,3.4790723E2,4.145293E2,4.7878906E2,1.1978223E2,3.8210156E2,0E0,0E0,0E0,0E0,0E0,0E0,0E0,0E0,0E0,0E0,0E0,0E0,0E0,0E0,0E0,0E0,0E0,0E0,0E0,0E0,0E0,0E0,0E0,0E0,0E0,0E0,0E0,0E0,0E0,0E0,0E0,0E0],"parents":[2147483647,0,0,1,1,2,2,3,3,4,4,5,5,6,6,7,7,8,8,9,9,10,10,11,11,12,12,13,13,14,14,15,15,16,16,17,17,18,18,19,19,20,20,21,21,22,22,23,23,24,24,25,25,26,26,27,27,28,28,29,29,30,30],"right_children":[2,4,6,8,10,12,14,16,18,20,22,24,26,28,30,32,34,36,38,40,42,44,46,48,50,52,54,56,58,60,62,-1,-1,-1,-1,-1,-1,-1,-1,-1,-1,-1,-1,-1,-1,-1,-1,-1,-1,-1,-1,-1,-1,-1,-1,-1,-1,-1,-1,-1,-1,-1,-1],"split_conditions":[1.09666664E2,2.0333334E1,4.5491666E2,6.9166665E0,5.0083332E1,1.38E2,1.944E3,1.3E1,-2.4492937E-16,3.9E1,1E2,2.8E1,2.5925E2,5.12E2,1.4355834E3,5.3E1,1.3E1,1.38E2,8.6E1,2.6333334E1,1E0,3.1E1,3.16E2,2.5E1,1.6933333E2,1.088E3,1.19E2,5.6E1,5E0,4.5E1,2.2E1,-5.381748E-2,-1.5054744E-2,-4.4722557E-2,3.656351E-3,-3.8856298E-2,9.173536E-3,-4.5522418E-2,-2.4773274E-2,-3.4493547E-2,-2.3825275E-2,-5.5537038E-3,-2.4483332E-2,-2.1804536E-2,-9.933202E-3,-2.7409608E-3,2.9393284E-2,-2.2373985E-2,-1.4393001E-3,-4.6234502E-4,1.6004262E-2,1.4711856E-2,3.7719183E-2,1.5169951E-2,2.979129E-2,1.6074663E-2,3.307667E-2,5.4718506E-2,3.9648812E-2,1.9672086E-2,4.964296E-2,-4.381721E-2,5.6393996E-2],"split_indices":[14,14,14,14,14,11,11,11,17,11,0,10,14,0,14,2,2,11,10,12,3,10,11,9,14,11,0,10,6,10,1,0,0,0,0,0,0,0,0,0,0,0,0,0,0,0,0,0,0,0,0,0,0,0,0,0,0,0,0,0,0,0,0],"split_type":[0,0,0,0,0,0,0,0,0,0,0,0,0,0,0,0,0,0,0,0,0,0,0,0,0,0,0,0,0,0,0,0,0,0,0,0,0,0,0,0,0,0,0,0,0,0,0,0,0,0,0,0,0,0,0,0,0,0,0,0,0,0,0],"sum_hessian":[1.9788372E5,9.3673086E4,1.0421063E5,5.581083E4,3.786226E4,4.0731867E4,6.3478766E4,3.7774688E4,1.803614E4,1.9309865E4,1.8552396E4,1.688175E4,2.3850117E4,3.456068E4,2.8918082E4,3.5604945E4,2.169741E3,7.804551E3,1.023159E4,1.38103955E4,5.4994688E3,1.32811E4,5.271296E3,4.504719E3,1.2377032E4,1.1641148E4,1.2208969E4,1.4042981E4,2.05177E4,6.0072515E3,2.2910832E4,3.548815E4,1.1679727E2,1.9903228E3,1.7941817E2,7.6675913E3,1.3695955E2,9.961241E3,2.7034836E2,6.571829E3,7.238567E3,1.5727854E3,3.926683E3,5.75037E3,7.53073E3,4.797501E3,4.7379517E2,2.2601543E3,2.244565E3,4.96097E3,7.4160615E3,1.083534E4,8.0580884E2,1.7058229E3,1.05031455E4,1.4410789E3,1.2601902E4,2.1240496E3,1.839365E4,1.2430323E2,5.882948E3,3.361175E1,2.2877219E4],"tree_param":{"num_deleted":"0","num_feature":"21","num_nodes":"63","size_leaf_vector":"1"}},{"base_weights":[-7.766719E-5,-1.1917567E0,1.1050019E0,-1.6311574E0,-5.807628E-1,5.1620346E-1,1.5041229E0,-1.7532706E0,-1.3775173E0,-8.493282E-1,-3.246084E-1,1.4508505E-1,7.5545925E-1,1.236033E0,1.8166748E0,-1.7788107E0,-1.3371953E0,-1.2444766E0,-1.4793308E0,-8.800526E-1,-1.5587042E-1,-4.0068132E-1,2.4466574E-1,-3.9279082E-1,3.419179E-1,5.475948E-1,9.2245877E-1,9.0376306E-1,1.3145604E0,1.6105992E0,1.8680747E0,-5.3494222E-2,-1.4634589E-2,-4.4116985E-2,3.5476615E-3,-3.8756084E-2,-9.211219E-3,-4.6849426E-2,-3.9603263E-2,-2.8592644E-2,-1.741151E-2,5.0486354E-3,-3.3016477E-2,-1.9080738E-2,-7.1720905E-3,2.1667589E-2,4.1220716E-4,-2.608206E-2,-3.7977826E-3,4.941334E-3,2.1325625E-2,1.4831039E-2,3.702811E-2,2.5132574E-2,3.646983E-2,1.840282E-2,3.4623664E-2,5.3976692E-2,3.8122933E-2,2.4572438E-2,4.9100928E-2,-4.3232776E-2,5.6191508E-2],"categories":[],"categories_nodes":[],"categories_segments":[],"categories_sizes":[],"default_left":[0,0,0,0,0,0,0,0,0,0,0,0,0,0,0,0,0,0,0,0,0,0,0,0,0,0,0,0,0,0,0,0,0,0,0,0,0,0,0,0,0,0,0,0,0,0,0,0,0,0,0,0,0,0,0,0,0,0,0,0,0,0,0],"id":8,"left_children":[1,3,5,7,9,11,13,15,17,19,21,23,25,27,29,31,33,35,37,39,41,43,45,47,49,51,53,55,57,59,61,-1,-1,-1,-1,-1,-1,-1,-1,-1,-1,-1,-1,-1,-1,-1,-1,-1,-1,-1,-1,-1,-1,-1,-1,-1,-1,-1,-1,-1,-1,-1,-1],"loss_changes":[2.5723884E5,2.5231516E4,2.3816844E4,1.6908281E3,2.7045518E3,3.635705E3,5.059172E3,3.897422E2,2.38875E2,4.0879395E2,8.71656E2,1.6995757E3,8.6373535E2,8.4728125E2,2.923828E2,1.9344531E2,4.1519604E2,3.4216113E2,1.2981445E2,4.016914E2,2.499159E2,6.750857E2,2.616998E2,5.4555365E2,7.6820764E2,4.0485938E2,3.4181348E2,4.513623E2,5.5596484E2,1.1381348E2,3.7010156E2,0E0,0E0,0E0,0E0,0E0,0E0,0E0,0E0,0E0,0E0,0E0,0E0,0E0,0E0,0E0,0E0,0E0,0E0,0E0,0E0,0E0,0E0,0E0,0E0,0E0,0E0,0E0,0E0,0E0,0E0,0E0,0E0],"parents":[2147483647,0,0,1,1,2,2,3,3,4,4,5,5,6,6,7,7,8,8,9,9,10,10,11,11,12,12,13,13,14,14,15,15,16,16,17,17,18,18,19,19,20,20,21,21,22,22,23,23,24,24,25,25,26,26,27,27,28,28,29,29,30,30],"right_children":[2,4,6,8,10,12,14,16,18,20,22,24,26,28,30,32,34,36,38,40,42,44,46,48,50,52,54,56,58,60,62,-1,-1,-1,-1,-1,-1,-1,-1,-1,-1,-1,-1,-1,-1,-1,-1,-1,-1,-1,-1,-1,-1,-1,-1,-1,-1,-1,-1,-1,-1,-1,-1],"split_conditions":[1.18333336E2,2.0333334E1,4.8241666E2,6.9166665E0,5.0083332E1,1.38E2,1.944E3,1.3E1,-2.4492937E-16,1.12E2,2.17E2,2.8E1,2.5925E2,2.69E2,1.4355834E3,5.3E1,1.3E1,3.4E1,1.425E1,6E1,1E0,3.1E1,1E0,3.4E1,2.97E2,1.088E3,8.26E2,8E0,5E0,6.170833E2,2.2E1,-5.3494222E-2,-1.4634589E-2,-4.4116985E-2,3.5476615E-3,-3.8756084E-2,-9.211219E-3,-4.6849426E-2,-3.9603263E-2,-2.8592644E-2,-1.741151E-2,5.0486354E-3,-3.3016477E-2,-1.9080738E-2,-7.1720905E-3,2.1667589E-2,4.1220716E-4,-2.608206E-2,-3.7977826E-3,4.941334E-3,2.1325625E-2,1.4831039E-2,3.702811E-2,2.5132574E-2,3.646983E-2,1.840282E-2,3.4623664E-2,5.3976692E-2,3.8122933E-2,2.4572438E-2,4.9100928E-2,-4.3232776E-2,5.6191508E-2],"split_indices":[14,14,14,14,14,11,11,11,17,12,11,10,14,0,14,2,2,19,14,11,4,10,9,3,9,11,11,20,6,14,1,0,0,0,0,0,0,0,0,0,0,0,0,0,0,0,0,0,0,0,0,0,0,0,0,0,0,0,0,0,0,0,0],"split_type":[0,0,0,0,0,0,0,0,0,0,0,0,0,0,0,0,0,0,0,0,0,0,0,0,0,0,0,0,0,0,0,0,0,0,0,0,0,0,0,0,0,0,0,0,0,0,0,0,0,0,0,0,0,0,0,0,0,0,0,0,0,0,0],"sum_hessian":[1.9533462E5,9.398472E4,1.013499E5,5.4668094E4,3.9316625E4,4.0946434E4,6.0403465E4,3.6897934E4,1.7770162E4,1.919221E4,2.0124412E4,1.6050903E4,2.4895533E4,3.2517074E4,2.788639E4,3.4760906E4,2.1370254E3,7.709412E3,1.006075E4,1.83777E4,8.1451245E2,1.7752426E4,2.3719866E3,4.299866E3,1.1751037E4,1.1092706E4,1.3802826E4,6.218308E3,2.6298768E4,5.5734175E3,2.2312973E4,3.464433E4,1.165781E2,1.9576271E3,1.7939838E2,7.338052E3,3.7136E2,6.6262227E3,3.4345276E3,1.4774635E4,3.6030642E3,6.070354E2,2.0747705E2,7.226322E3,1.0526104E4,7.72408E2,1.5995787E3,1.5401166E3,2.7597495E3,7.9391606E3,3.8118762E3,1.029632E4,7.963859E2,1.0711984E4,3.0908425E3,2.8808743E3,3.3374338E3,2.176186E3,2.412258E4,1.789385E2,5.394479E3,3.3066E1,2.2279906E4],"tree_param":{"num_deleted":"0","num_feature":"21","num_nodes":"63","size_leaf_vector":"1"}},{"base_weights":[-8.4344436E-5,-1.132475E0,1.1230193E0,-1.6152341E0,-5.2365726E-1,5.957407E-1,1.520245E0,-1.8032836E0,-1.4403586E0,-7.915995E-1,-2.3532708E-1,2.913441E-1,8.428719E-1,1.2394829E0,1.81076E0,-1.8645364E0,-1.7552073E0,-1.5337404E0,-1.2889057E0,-9.555515E-1,-6.534692E-1,-3.8625696E-1,8.558271E-2,1.1546431E-1,7.0602185E-1,6.060784E-1,9.697578E-1,1.0062745E0,1.3567238E0,1.6937228E0,1.9021736E0,-5.7611022E-2,-5.4559056E-2,-5.0091434E-2,-5.4762978E-2,-4.6622377E-2,-2.3090929E-2,-4.1661444E-3,-3.9794177E-2,-3.256288E-2,-1.43746035E-2,-2.0994749E-2,-9.350836E-4,-1.8127475E-2,-4.79573E-3,-1.8788907E-3,1.5199715E-2,-2.2572368E-2,6.8413923E-3,7.580315E-3,2.6165089E-2,1.5856097E-2,3.590422E-2,2.6654188E-2,3.5794817E-2,9.8925615E-3,3.2534078E-2,5.552415E-2,3.9029427E-2,4.2578597E-2,5.2675806E-2,-3.228771E-2,5.7231326E-2],"categories":[],"categories_nodes":[],"categories_segments":[],"categories_sizes":[],"default_left":[0,0,0,0,0,0,0,0,0,0,0,0,0,0,0,0,0,0,0,0,0,0,0,0,0,0,0,0,0,0,0,0,0,0,0,0,0,0,0,0,0,0,0,0,0,0,0,0,0,0,0,0,0,0,0,0,0,0,0,0,0,0,0],"id":9,"left_children":[1,3,5,7,9,11,13,15,17,19,21,23,25,27,29,31,33,35,37,39,41,43,45,47,49,51,53,55,57,59,61,-1,-1,-1,-1,-1,-1,-1,-1,-1,-1,-1,-1,-1,-1,-1,-1,-1,-1,-1,-1,-1,-1,-1,-1,-1,-1,-1,-1,-1,-1,-1,-1],"loss_changes":[2.4531544E5,2.8228742E4,2.0282484E4,1.7590469E3,3.2815938E3,3.1299844E3,4.5027734E3,7.272656E1,3.9065625E2,4.9800488E2,9.911394E2,1.3598943E3,6.8941895E2,7.666758E2,2.871797E2,2.5554688E1,8.386719E1,2.6559375E2,4.5754492E2,6.222793E2,3.4479004E2,6.8676953E2,4.0857742E2,1.2796118E3,4.180586E2,3.6650977E2,2.704414E2,4.9698242E2,5.1234375E2,2.0064453E2,2.5325E2,0E0,0E0,0E0,0E0,0E0,0E0,0E0,0E0,0E0,0E0,0E0,0E0,0E0,0E0,0E0,0E0,0E0,0E0,0E0,0E0,0E0,0E0,0E0,0E0,0E0,0E0,0E0,0E0,0E0,0E0,0E0,0E0],"parents":[2147483647,0,0,1,1,2,2,3,3,4,4,5,5,6,6,7,7,8,8,9,9,10,10,11,11,12,12,13,13,14,14,15,15,16,16,17,17,18,18,19,19,20,20,21,21,22,22,23,23,24,24,25,25,26,26,27,27,28,28,29,29,30,30],"right_children":[2,4,6,8,10,12,14,16,18,20,22,24,26,28,30,32,34,36,38,40,42,44,46,48,50,52,54,56,58,60,62,-1,-1,-1,-1,-1,-1,-1,-1,-1,-1,-1,-1,-1,-1,-1,-1,-1,-1,-1,-1,-1,-1,-1,-1,-1,-1,-1,-1,-1,-1,-1,-1],"split_conditions":[1.35E2,2.0333334E1,5.68E2,3.5833333E0,5.7833332E1,2.01E2,1.944E3,1.2E1,7E0,2.6333334E1,1.04E2,2.8E2,2.6891666E2,4.5E2,5.751E3,8.333333E-1,-1.8369701E-16,8.6E1,3.8333333E0,6.6E1,2.13E2,5.6E1,1.51E2,4E0,7.3E1,9.8E2,6.28E2,5.6E1,4E0,9.9E2,9E0,-5.7611022E-2,-5.4559056E-2,-5.0091434E-2,-5.4762978E-2,-4.6622377E-2,-2.3090929E-2,-4.1661444E-3,-3.9794177E-2,-3.256288E-2,-1.43746035E-2,-2.0994749E-2,-9.350836E-4,-1.8127475E-2,-4.79573E-3,-1.8788907E-3,1.5199715E-2,-2.2572368E-2,6.8413923E-3,7.580315E-3,2.6165089E-2,1.5856097E-2,3.590422E-2,2.6654188E-2,3.5794817E-2,9.8925615E-3,3.2534078E-2,5.552415E-2,3.9029427E-2,4.2578597E-2,5.2675806E-2,-3.228771E-2,5.7231326E-2],"split_indices":[14,14,14,14,14,11,11,20,11,12,0,0,14,0,11,13,18,10,14,11,0,10,11,9,8,11,10,10,6,10,19,0,0,0,0,0,0,0,0,0,0,0,0,0,0,0,0,0,0,0,0,0,0,0,0,0,0,0,0,0,0,0,0],"split_type":[0,0,0,0,0,0,0,0,0,0,0,0,0,0,0,0,0,0,0,0,0,0,0,0,0,0,0,0,0,0,0,0,0,0,0,0,0,0,0,0,0,0,0,0,0,0,0,0,0,0,0,0,0,0,0,0,0,0,0,0,0,0,0],"sum_hessian":[1.9288756E5,9.604667E4,9.684089E4,5.3568297E4,4.2478375E4,4.1610055E4,5.5230836E4,2.5807404E4,2.776089E4,2.2016719E4,2.0461656E4,1.8645807E4,2.2964246E4,2.8089557E4,2.714128E4,1.1331909E4,1.4475495E4,1.7167045E4,1.0593846E4,1.006467E4,1.1952049E4,1.3916338E4,6.545319E3,1.3093612E4,5.5521953E3,8.014124E3,1.4950122E4,9.400413E3,1.8689145E4,1.1911045E4,1.5230233E4,5.094493E3,6.237416E3,6.539298E3,7.9361973E3,1.6720898E4,4.461461E2,3.352594E2,1.0258587E4,7.907587E3,2.1570833E3,1.1123335E4,8.287139E2,7.0889546E3,6.8273833E3,4.841891E3,1.7034275E3,1.5028339E3,1.1590778E4,1.4897737E3,4.0624214E3,7.085892E3,9.282321E2,1.0965362E4,3.9847598E3,9.7449945E2,8.425913E3,1.8914958E3,1.6797648E4,2.2033896E3,9.707655E3,2.79031E1,1.520233E4],"tree_param":{"num_deleted":"0","num_feature":"21","num_nodes":"63","size_leaf_vector":"1"}},{"base_weights":[-8.9593865E-5,-1.1715828E0,1.0476301E0,-1.6130699E0,-5.900848E-1,4.6893832E-1,1.4670926E0,-1.7930235E0,-1.4383261E0,-8.266456E-1,-3.2916072E-1,1.1954077E-1,7.0592016E-1,1.1910712E0,1.797532E0,-1.8570653E0,-1.7429104E0,-1.5270313E0,-1.3092197E0,-9.188704E-1,-5.8914113E-1,-4.6607122E-1,1.4403758E-2,-3.7852603E-1,2.976365E-1,5.0127506E-1,8.794455E-1,8.5991853E-1,1.2702761E0,1.6717768E0,1.8968239E0,-5.7472687E-2,-5.4268796E-2,-4.9626697E-2,-5.4481957E-2,-4.6457365E-2,-2.101761E-2,-8.951011E-3,-4.037628E-2,-3.3399604E-2,-2.2820324E-2,1.2421547E-2,-2.047656E-2,-2.2748772E-2,-1.0456426E-2,-2.2820004E-3,2.8221922E-2,-2.0007798E-2,4.7544026E-4,-6.5787585E-4,1.516124E-2,1.3545897E-2,3.5645712E-2,2.4397597E-2,3.7921544E-2,1.713363E-2,3.334786E-2,5.335486E-2,3.6764503E-2,4.0979024E-2,5.230523E-2,-3.162756E-2,5.707235E-2],"categories":[],"categories_nodes":[],"categories_segments":[],"categories_sizes":[],"default_left":[0,0,0,0,0,0,0,0,0,0,0,0,0,0,0,0,0,0,0,0,0,0,0,0,0,0,0,0,0,0,0,0,0,0,0,0,0,0,0,0,0,0,0,0,0,0,0,0,0,0,0,0,0,0,0,0,0,0,0,0,0,0,0],"id":10,"left_children":[1,3,5,7,9,11,13,15,17,19,21,23,25,27,29,31,33,35,37,39,41,43,45,47,49,51,53,55,57,59,61,-1,-1,-1,-1,-1,-1,-1,-1,-1,-1,-1,-1,-1,-1,-1,-1,-1,-1,-1,-1,-1,-1,-1,-1,-1,-1,-1,-1,-1,-1,-1,-1],"loss_changes":[2.3386598E5,2.3092797E4,2.4414703E4,1.6053438E3,2.396086E3,3.49992E3,5.3165312E3,7.760156E1,2.9516406E2,4.4545898E2,8.6845056E2,1.5155632E3,8.939678E2,8.3235547E2,3.2820312E2,2.7707031E1,8.877734E1,2.726914E2,3.914121E2,4.5025098E2,5.342307E2,4.5312573E2,4.4104633E2,5.1186908E2,8.35485E2,3.944546E2,3.459209E2,4.453755E2,5.815156E2,2.5465039E2,2.4641406E2,0E0,0E0,0E0,0E0,0E0,0E0,0E0,0E0,0E0,0E0,0E0,0E0,0E0,0E0,0E0,0E0,0E0,0E0,0E0,0E0,0E0,0E0,0E0,0E0,0E0,0E0,0E0,0E0,0E0,0E0,0E0,0E0],"parents":[2147483647,0,0,1,1,2,2,3,3,4,4,5,5,6,6,7,7,8,8,9,9,10,10,11,11,12,12,13,13,14,14,15,15,16,16,17,17,18,18,19,19,20,20,21,21,22,22,23,23,24,24,25,25,26,26,27,27,28,28,29,29,30,30],"right_children":[2,4,6,8,10,12,14,16,18,20,22,24,26,28,30,32,34,36,38,40,42,44,46,48,50,52,54,56,58,60,62,-1,-1,-1,-1,-1,-1,-1,-1,-1,-1,-1,-1,-1,-1,-1,-1,-1,-1,-1,-1,-1,-1,-1,-1,-1,-1,-1,-1,-1,-1,-1,-1],"split_conditions":[1.09666664E2,1.8833334E1,4.8241666E2,3.5833333E0,5.0083332E1,1.38E2,1.944E3,1.2E1,6E0,3.9E1,1E2,2.8E1,2.5925E2,2.69E2,5.751E3,8.333333E-1,-1.8369701E-16,8.6E1,3.8333333E0,2.3666666E1,1.8333334E0,1.1E1,3.16E2,1.5E1,1.6933333E2,1.088E3,8.98E2,8E0,5E0,9.9E2,9E0,-5.7472687E-2,-5.4268796E-2,-4.9626697E-2,-5.4481957E-2,-4.6457365E-2,-2.101761E-2,-8.951011E-3,-4.037628E-2,-3.3399604E-2,-2.2820324E-2,1.2421547E-2,-2.047656E-2,-2.2748772E-2,-1.0456426E-2,-2.2820004E-3,2.8221922E-2,-2.0007798E-2,4.7544026E-4,-6.5787585E-4,1.516124E-2,1.3545897E-2,3.5645712E-2,2.4397597E-2,3.7921544E-2,1.713363E-2,3.334786E-2,5.335486E-2,3.6764503E-2,4.0979024E-2,5.230523E-2,-3.162756E-2,5.707235E-2],"split_indices":[14,14,14,14,14,11,11,20,11,11,0,10,14,0,11,13,18,10,14,12,13,11,11,11,14,11,10,20,6,10,19,0,0,0,0,0,0,0,0,0,0,0,0,0,0,0,0,0,0,0,0,0,0,0,0,0,0,0,0,0,0,0,0],"split_type":[0,0,0,0,0,0,0,0,0,0,0,0,0,0,0,0,0,0,0,0,0,0,0,0,0,0,0,0,0,0,0,0,0,0,0,0,0,0,0,0,0,0,0,0,0,0,0,0,0,0,0,0,0,0,0,0,0,0,0,0,0,0,0],"sum_hessian":[1.9053627E5,8.9954625E4,1.0058164E5,5.113213E4,3.8822496E4,4.226914E4,5.83125E4,2.5185986E4,2.5946143E4,2.0360734E4,1.846176E4,1.7083436E4,2.5185705E4,3.1774951E4,2.6537547E4,1.1040621E4,1.4145365E4,1.5372984E4,1.0573157E4,1.4663803E4,5.696931E3,1.3200858E4,5.2609014E3,4.4993423E3,1.2584093E4,1.1558366E4,1.3627338E4,6.135317E3,2.5639635E4,1.1716372E4,1.4821175E4,4.955653E3,6.0849683E3,6.4045796E3,7.7407856E3,1.4981503E4,3.9148145E2,3.7031354E2,1.0202844E4,6.575366E3,8.088437E3,4.8498358E2,5.2119478E3,3.784727E3,9.416132E3,4.7936445E3,4.6725708E2,2.5984434E3,1.9008988E3,4.9580176E3,7.626075E3,1.07794E4,7.7896655E2,1.1629047E4,1.9982914E3,2.8584895E3,3.2768274E3,2.0736138E3,2.3566021E4,2.2298667E3,9.486506E3,2.765563E1,1.479352E4],"tree_param":{"num_deleted":"0","num_feature":"21","num_nodes":"63","size_leaf_vector":"1"}},{"base_weights":[-9.530818E-5,-1.1513901E0,1.0278462E0,-1.5965067E0,-5.7451856E-1,4.5628554E-1,1.4479954E0,-1.7823256E0,-1.4175812E0,-8.0641687E-1,-3.1977767E-1,1.16111755E-1,6.8766403E-1,1.168304E0,1.7873548E0,-1.8492323E0,-1.7301351E0,-1.5508587E0,-1.3274628E0,-8.97204E-1,-5.7336754E-1,-4.5295048E-1,1.3993596E-2,-3.678923E-1,2.8904837E-1,4.872906E-1,8.5821563E-1,1.0944203E0,1.5336047E0,1.6566375E0,1.8911928E0,-5.7326872E-2,-5.3965528E-2,-4.914689E-2,-5.4188162E-2,-4.8655048E-2,-3.4582768E-2,-4.1532993E-2,-3.0883737E-2,-3.270183E-2,-2.2232303E-2,1.2065185E-2,-1.9932048E-2,-1.9902434E-2,-8.815042E-3,2.8656906E-2,-2.1639445E-3,-3.3657357E-2,-6.547288E-3,-6.3814165E-4,1.4734699E-2,1.3159684E-2,3.494784E-2,2.3205549E-2,3.4653883E-2,3.494296E-2,2.2334626E-2,1.895174E-2,4.790789E-2,4.0314466E-2,5.1920034E-2,-3.097019E-2,5.6904953E-2],"categories":[],"categories_nodes":[],"categories_segments":[],"categories_sizes":[],"default_left":[0,0,0,0,0,0,0,0,0,0,0,0,0,0,0,0,0,0,0,0,0,0,0,0,0,0,0,0,0,0,0,0,0,0,0,0,0,0,0,0,0,0,0,0,0,0,0,0,0,0,0,0,0,0,0,0,0,0,0,0,0,0,0],"id":11,"left_children":[1,3,5,7,9,11,13,15,17,19,21,23,25,27,29,31,33,35,37,39,41,43,45,47,49,51,53,55,57,59,61,-1,-1,-1,-1,-1,-1,-1,-1,-1,-1,-1,-1,-1,-1,-1,-1,-1,-1,-1,-1,-1,-1,-1,-1,-1,-1,-1,-1,-1,-1,-1,-1],"loss_changes":[2.2282197E5,2.2803562E4,2.3885766E4,1.6641719E3,2.2848613E3,3.3168994E3,5.439164E3,8.265625E1,3.0473828E2,4.2789844E2,8.194269E2,1.4281871E3,8.567324E2,8.4658594E2,3.4840625E2,2.9988281E1,9.3796875E1,2.891172E2,2.5741406E2,4.3789844E2,5.0463782E2,4.4108887E2,4.263553E2,5.0660303E2,7.88421E2,3.796421E2,3.3980566E2,6.4272656E2,3.0081445E2,2.6338477E2,2.3978906E2,0E0,0E0,0E0,0E0,0E0,0E0,0E0,0E0,0E0,0E0,0E0,0E0,0E0,0E0,0E0,0E0,0E0,0E0,0E0,0E0,0E0,0E0,0E0,0E0,0E0,0E0,0E0,0E0,0E0,0E0,0E0,0E0],"parents":[2147483647,0,0,1,1,2,2,3,3,4,4,5,5,6,6,7,7,8,8,9,9,10,10,11,11,12,12,13,13,14,14,15,15,16,16,17,17,18,18,19,19,20,20,21,21,22,22,23,23,24,24,25,25,26,26,27,27,28,28,29,29,30,30],"right_children":[2,4,6,8,10,12,14,16,18,20,22,24,26,28,30,32,34,36,38,40,42,44,46,48,50,52,54,56,58,60,62,-1,-1,-1,-1,-1,-1,-1,-1,-1,-1,-1,-1,-1,-1,-1,-1,-1,-1,-1,-1,-1,-1,-1,-1,-1,-1,-1,-1,-1,-1,-1,-1],"split_conditions":[1.09666664E2,1.8833334E1,4.8241666E2,3.5833333E0,5.0083332E1,1.38E2,1.944E3,1.2E1,7.0833335E0,3.9E1,1E2,2.8E1,2.5925E2,1.829E3,5.751E3,8.333333E-1,-1.8369701E-16,1.3E1,2.6E1,2.3666666E1,1.8333334E0,3.1E1,4.0833332E1,1.0666667E1,1.6933333E2,1.088E3,8.26E2,2.2E1,4.2E1,9.9E2,9E0,-5.7326872E-2,-5.3965528E-2,-4.914689E-2,-5.4188162E-2,-4.8655048E-2,-3.4582768E-2,-4.1532993E-2,-3.0883737E-2,-3.270183E-2,-2.2232303E-2,1.2065185E-2,-1.9932048E-2,-1.9902434E-2,-8.815042E-3,2.8656906E-2,-2.1639445E-3,-3.3657357E-2,-6.547288E-3,-6.3814165E-4,1.4734699E-2,1.3159684E-2,3.494784E-2,2.3205549E-2,3.4653883E-2,3.494296E-2,2.2334626E-2,1.895174E-2,4.790789E-2,4.0314466E-2,5.1920034E-2,-3.097019E-2,5.6904953E-2],"split_indices":[14,14,14,14,14,11,11,20,14,11,0,10,14,0,11,13,18,11,20,12,13,10,13,12,14,11,11,19,10,10,19,0,0,0,0,0,0,0,0,0,0,0,0,0,0,0,0,0,0,0,0,0,0,0,0,0,0,0,0,0,0,0,0],"split_type":[0,0,0,0,0,0,0,0,0,0,0,0,0,0,0,0,0,0,0,0,0,0,0,0,0,0,0,0,0,0,0,0,0,0,0,0,0,0,0,0,0,0,0,0,0,0,0,0,0,0,0,0,0,0,0,0,0,0,0,0,0,0,0],"sum_hessian":[1.8827752E5,8.8810086E4,9.946743E4,5.0128746E4,3.8681336E4,4.2141387E4,5.732604E4,2.4586277E4,2.5542469E4,2.0247377E4,1.843396E4,1.7060482E4,2.5080906E4,3.1428172E4,2.5897867E4,1.0759069E4,1.3827208E4,1.0297343E4,1.5245125E4,1.4569002E4,5.6783745E3,1.3176325E4,5.2576353E3,4.490797E3,1.2569685E4,1.1533994E4,1.3546912E4,2.6144361E4,5.283811E3,1.1472537E4,1.442533E4,4.821244E3,5.9378257E3,6.2750737E3,7.552135E3,8.736636E3,1.5607067E3,1.279536E4,2.4497654E3,6.5151455E3,8.0538564E3,4.8436807E2,5.1940063E3,5.6714595E3,7.5048657E3,4.3990854E2,4.8177266E3,7.42609E2,3.748188E3,4.958E3,7.611685E3,1.0763163E4,7.708313E2,1.0543025E4,3.0038872E3,2.1766443E4,4.3779185E3,3.4737903E2,4.9364316E3,2.199114E3,9.273423E3,2.7420208E1,1.439791E4],"tree_param":{"num_deleted":"0","num_feature":"21","num_nodes":"63","size_leaf_vector":"1"}},{"base_weights":[-1.0120063E-4,-1.0731369E0,1.0625808E0,-1.5647907E0,-4.8280162E-1,5.730309E-1,1.4845929E0,-1.771181E0,-1.3778679E0,-7.337014E-1,-2.1581179E-1,2.9890785E-1,8.206793E-1,1.1849098E0,1.7842352E0,-1.8410252E0,-1.7168759E0,-1.4762208E0,-1.2205082E0,-7.629084E-1,3.0147985E-3,-3.8473496E-1,4.564323E-2,9.926771E-2,6.374333E-1,4.6318826E-1,9.430981E-1,8.59017E-1,1.2671658E0,1.655857E0,1.8852686E0,-5.717324E-2,-5.3648923E-2,-4.8652116E-2,-5.388127E-2,-4.4930644E-2,-2.0951351E-2,-2.6258451E-3,-3.776631E-2,-2.7112542E-2,-1.7573172E-2,4.7338004E-3,-3.3460386E-2,-2.4530493E-2,-6.618774E-3,1.4030944E-2,-2.4961554E-3,-1.9572334E-2,7.1559343E-3,2.9485565E-2,1.3679999E-2,1.1345209E-2,3.3451177E-2,2.6948791E-2,3.8948406E-2,1.685556E-2,3.3077452E-2,5.580602E-2,3.6549177E-2,4.34456E-2,5.232529E-2,-3.031627E-2,5.6728788E-2],"categories":[],"categories_nodes":[],"categories_segments":[],"categories_sizes":[],"default_left":[0,0,0,0,0,0,0,0,0,0,0,0,0,0,0,0,0,0,0,0,0,0,0,0,0,0,0,0,0,0,0,0,0,0,0,0,0,0,0,0,0,0,0,0,0,0,0,0,0,0,0,0,0,0,0,0,0,0,0,0,0,0,0],"id":12,"left_children":[1,3,5,7,9,11,13,15,17,19,21,23,25,27,29,31,33,35,37,39,41,43,45,47,49,51,53,55,57,59,61,-1,-1,-1,-1,-1,-1,-1,-1,-1,-1,-1,-1,-1,-1,-1,-1,-1,-1,-1,-1,-1,-1,-1,-1,-1,-1,-1,-1,-1,-1,-1,-1],"loss_changes":[2.122236E5,2.6877047E4,1.9317422E4,1.9467734E3,2.8187568E3,2.9386396E3,4.5072656E3,8.789844E1,4.0860156E2,4.6679492E2,9.0048175E2,1.3887026E3,9.948965E2,6.7202344E2,3.2254688E2,3.2398438E1,9.893359E1,2.7135938E2,4.4351172E2,5.2005664E2,1.4354417E2,8.7985315E2,4.352659E2,1.3533947E3,4.7727246E2,3.2119116E2,2.6843164E2,3.658777E2,5.786113E2,2.004375E2,2.3334375E2,0E0,0E0,0E0,0E0,0E0,0E0,0E0,0E0,0E0,0E0,0E0,0E0,0E0,0E0,0E0,0E0,0E0,0E0,0E0,0E0,0E0,0E0,0E0,0E0,0E0,0E0,0E0,0E0,0E0,0E0,0E0,0E0],"parents":[2147483647,0,0,1,1,2,2,3,3,4,4,5,5,6,6,7,7,8,8,9,9,10,10,11,11,12,12,13,13,14,14,15,15,16,16,17,17,18,18,19,19,20,20,21,21,22,22,23,23,24,24,25,25,26,26,27,27,28,28,29,29,30,30],"right_children":[2,4,6,8,10,12,14,16,18,20,22,24,26,28,30,32,34,36,38,40,42,44,46,48,50,52,54,56,58,60,62,-1,-1,-1,-1,-1,-1,-1,-1,-1,-1,-1,-1,-1,-1,-1,-1,-1,-1,-1,-1,-1,-1,-1,-1,-1,-1,-1,-1,-1,-1,-1,-1],"split_conditions":[1.35E2,2.0333334E1,6.170833E2,3.5833333E0,5.7833332E1,2.21E2,1.944E3,1.2E1,7E0,2.13E2,8E1,2.54E2,2.5925E2,2.69E2,5.751E3,8.333333E-1,-1.8369701E-16,8.6E1,3.8333333E0,2.3E1,1.6E1,1.1E1,3E0,9E0,3.1E1,6.02E2,1.234E3,8E0,3E0,1.616E3,9E0,-5.717324E-2,-5.3648923E-2,-4.8652116E-2,-5.388127E-2,-4.4930644E-2,-2.0951351E-2,-2.6258451E-3,-3.776631E-2,-2.7112542E-2,-1.7573172E-2,4.7338004E-3,-3.3460386E-2,-2.4530493E-2,-6.618774E-3,1.4030944E-2,-2.4961554E-3,-1.9572334E-2,7.1559343E-3,2.9485565E-2,1.3679999E-2,1.1345209E-2,3.3451177E-2,2.6948791E-2,3.8948406E-2,1.685556E-2,3.3077452E-2,5.580602E-2,3.6549177E-2,4.34456E-2,5.232529E-2,-3.031627E-2,5.6728788E-2],"split_indices":[14,14,14,14,14,0,11,20,11,0,10,10,14,0,11,13,18,10,14,11,9,11,5,11,6,11,11,20,6,10,19,0,0,0,0,0,0,0,0,0,0,0,0,0,0,0,0,0,0,0,0,0,0,0,0,0,0,0,0,0,0,0,0],"split_type":[0,0,0,0,0,0,0,0,0,0,0,0,0,0,0,0,0,0,0,0,0,0,0,0,0,0,0,0,0,0,0,0,0,0,0,0,0,0,0,0,0,0,0,0,0,0,0,0,0,0,0,0,0,0,0,0,0,0,0,0,0,0,0],"sum_hessian":[1.8611075E5,9.260425E4,9.35065E4,5.0524156E4,4.2080094E4,4.3290375E4,5.0216125E4,2.4007672E4,2.6516484E4,2.1692826E4,2.0387266E4,2.0547959E4,2.2742416E4,2.5108836E4,2.510729E4,1.0486982E4,1.352069E4,1.6312484E4,1.0204E4,2.0865578E4,8.272472E2,1.2384991E4,8.002276E3,1.2926216E4,7.621743E3,5.8025186E3,1.6939898E4,5.062596E3,2.0046238E4,1.1064956E4,1.4042332E4,4.691143E3,5.79584E3,6.150628E3,7.370062E3,1.5873474E4,4.3901108E2,3.343507E2,9.869649E3,1.1621264E4,9.244315E3,7.274313E2,9.981589E1,3.4030852E3,8.981906E3,1.8710028E3,6.131273E3,2.0199244E3,1.0906291E4,2.623196E3,4.9985474E3,5.1344604E3,6.6805804E2,1.5045486E4,1.8944115E3,2.2818706E3,2.7807256E3,1.5230598E3,1.852318E4,3.3068276E3,7.758129E3,2.7196327E1,1.4015136E4],"tree_param":{"num_deleted":"0","num_feature":"21","num_nodes":"63","size_leaf_vector":"1"}},{"base_weights":[-1.0408447E-4,-1.1110728E0,9.887139E-1,-1.5621814E0,-5.446181E-1,4.752972E-1,1.4462217E0,-1.7595811E0,-1.3753966E0,-8.113256E-1,-3.411784E-1,1.9258592E-1,7.448672E-1,1.1495742E0,1.7697572E0,-1.8324322E0,-1.7031286E0,-1.5155343E0,-1.2813939E0,-8.766644E-1,-4.807703E-1,-4.5579603E-1,-1.4345002E-3,-3.316678E-1,3.1479642E-1,5.1808566E-1,8.838843E-1,9.34818E-1,1.2833133E0,1.6331774E0,1.8790392E0,-5.701144E-2,-5.3318664E-2,-4.9479354E-2,-5.565877E-2,-4.7672518E-2,-3.3288125E-2,-4.0209197E-2,-2.9287523E-2,-3.178174E-2,-2.1081563E-2,-3.3820756E-2,-5.7043144E-3,-1.5209203E-2,3.3562505E-3,-2.5647501E-3,2.8201234E-2,-1.9830028E-2,4.9627814E-3,6.3086785E-3,2.430108E-2,1.3626753E-2,3.2110058E-2,-5.030243E-2,2.6729992E-2,6.181959E-3,3.0338487E-2,5.4959953E-2,3.6649324E-2,4.2349853E-2,5.1940918E-2,-2.6250212E-2,5.65536E-2],"categories":[],"categories_nodes":[],"categories_segments":[],"categories_sizes":[],"default_left":[0,0,0,0,0,0,0,0,0,0,0,0,0,0,0,0,0,0,0,0,0,0,0,0,0,0,0,0,0,0,0,0,0,0,0,0,0,0,0,0,0,0,0,0,0,0,0,0,0,0,0,0,0,0,0,0,0,0,0,0,0,0,0],"id":13,"left_children":[1,3,5,7,9,11,13,15,17,19,21,23,25,27,29,31,33,35,37,39,41,43,45,47,49,51,53,55,57,59,61,-1,-1,-1,-1,-1,-1,-1,-1,-1,-1,-1,-1,-1,-1,-1,-1,-1,-1,-1,-1,-1,-1,-1,-1,-1,-1,-1,-1,-1,-1,-1,-1],"loss_changes":[2.0216056E5,2.214364E4,2.2869695E4,1.7762891E3,2.0843467E3,3.496463E3,4.9393438E3,9.332031E1,3.2464844E2,3.5862793E2,8.487798E2,1.4349972E3,7.3997266E2,7.703047E2,3.6447656E2,3.4941406E1,1.0525391E2,2.9524023E2,2.6555273E2,4.4040137E2,5.1577954E2,4.735537E2,4.352968E2,6.9330707E2,9.398557E2,3.1437598E2,2.667578E2,5.7442773E2,5.5778125E2,2.357832E2,2.306211E2,0E0,0E0,0E0,0E0,0E0,0E0,0E0,0E0,0E0,0E0,0E0,0E0,0E0,0E0,0E0,0E0,0E0,0E0,0E0,0E0,0E0,0E0,0E0,0E0,0E0,0E0,0E0,0E0,0E0,0E0,0E0,0E0],"parents":[2147483647,0,0,1,1,2,2,3,3,4,4,5,5,6,6,7,7,8,8,9,9,10,10,11,11,12,12,13,13,14,14,15,15,16,16,17,17,18,18,19,19,20,20,21,21,22,22,23,23,24,24,25,25,26,26,27,27,28,28,29,29,30,30],"right_children":[2,4,6,8,10,12,14,16,18,20,22,24,26,28,30,32,34,36,38,40,42,44,46,48,50,52,54,56,58,60,62,-1,-1,-1,-1,-1,-1,-1,-1,-1,-1,-1,-1,-1,-1,-1,-1,-1,-1,-1,-1,-1,-1,-1,-1,-1,-1,-1,-1,-1,-1,-1,-1],"split_conditions":[1.09666664E2,1.8833334E1,5.68E2,3.5833333E0,4.3333332E1,2.01E2,1.944E3,1.2E1,7.0833335E0,6.3E1,1.04E2,1.7E1,2.6891666E2,5.12E2,5.751E3,8.333333E-1,2.4E1,1.3E1,2.6E1,1.5E1,6E0,2.56E2,2.16E2,5.8E1,4.15E2,9.8E2,4E0,5.6E1,4E0,1.616E3,1.15E2,-5.701144E-2,-5.3318664E-2,-4.9479354E-2,-5.565877E-2,-4.7672518E-2,-3.3288125E-2,-4.0209197E-2,-2.9287523E-2,-3.178174E-2,-2.1081563E-2,-3.3820756E-2,-5.7043144E-3,-1.5209203E-2,3.3562505E-3,-2.5647501E-3,2.8201234E-2,-1.9830028E-2,4.9627814E-3,6.3086785E-3,2.430108E-2,1.3626753E-2,3.2110058E-2,-5.030243E-2,2.6729992E-2,6.181959E-3,3.0338487E-2,5.4959953E-2,3.6649324E-2,4.2349853E-2,5.1940918E-2,-2.6250212E-2,5.65536E-2],"split_indices":[14,14,14,14,14,11,11,20,14,11,0,10,14,0,11,13,19,11,20,0,16,11,10,9,0,11,12,10,6,10,1,0,0,0,0,0,0,0,0,0,0,0,0,0,0,0,0,0,0,0,0,0,0,0,0,0,0,0,0,0,0,0,0],"split_type":[0,0,0,0,0,0,0,0,0,0,0,0,0,0,0,0,0,0,0,0,0,0,0,0,0,0,0,0,0,0,0,0,0,0,0,0,0,0,0,0,0,0,0,0,0,0,0,0,0,0,0,0,0,0,0,0,0,0,0,0,0,0,0],"sum_hessian":[1.8402361E5,8.665916E4,9.736446E4,4.824023E4,3.841893E4,4.5879914E4,5.1484543E4,2.344958E4,2.479065E4,1.6623152E4,2.1795775E4,2.2394947E4,2.3484967E4,2.6860693E4,2.4623852E4,1.0224101E4,1.32254795E4,9.946881E3,1.484377E4,1.3878271E4,2.744881E3,1.6297298E4,5.4984775E3,4.2333174E3,1.8161629E4,8.92696E3,1.4558007E4,1.0311177E4,1.6549516E4,1.0952029E4,1.3671822E4,4.565229E3,5.658871E3,9.778797E3,3.446682E3,8.418617E3,1.5282639E3,1.2438856E4,2.404913E3,6.765809E3,7.112463E3,8.502836E2,1.8945975E3,1.49496455E4,1.3476525E3,5.048633E3,4.4984473E2,2.546132E3,1.6871852E3,1.49981045E4,3.1635254E3,8.003303E3,9.2365643E2,3.9690987E1,1.4518315E4,9.795188E2,9.331658E3,1.6692339E3,1.4880282E4,3.368298E3,7.5837305E3,2.9805536E1,1.3642017E4],"tree_param":{"num_deleted":"0","num_feature":"21","num_nodes":"63","size_leaf_vector":"1"}},{"base_weights":[-1.0901365E-4,-1.0243067E0,1.0321664E0,-1.5443077E0,-4.6495762E-1,7.031633E-1,1.6511667E0,-1.7475194E0,-1.3537235E0,-7.1403784E-1,-1.9630276E-1,4.4585237E-1,1.049026E0,1.3999794E0,1.8220313E0,-1.8234414E0,-1.6888913E0,-1.4961959E0,-1.2586328E0,-8.3828914E-1,-5.486104E-1,-3.289115E-1,1.2588996E-1,1.9054793E-1,6.5841544E-1,1.1277508E0,6.3071215E-1,1.2364786E0,1.5807215E0,-1.709622E0,1.8291097E0,-5.6841116E-2,-5.2974474E-2,-4.8994806E-2,-5.5420276E-2,-4.71353E-2,-3.2591157E-2,-3.953578E-2,-2.8613849E-2,-2.9377481E-2,-1.7934278E-2,9.121404E-3,-1.7996207E-2,-1.5790492E-2,-4.038387E-3,8.6228695E-4,2.384288E-2,6.6818023E-4,1.6870081E-2,1.2621438E-2,2.4012422E-2,5.3242464E-2,3.257104E-2,3.7609298E-2,1.3857229E-2,-5.670851E-2,3.746373E-2,9.3714596E-4,4.7776364E-2,-5.5348113E-2,-3.3154827E-2,-5.888071E-3,5.507423E-2],"categories":[],"categories_nodes":[],"categories_segments":[],"categories_sizes":[],"default_left":[0,0,0,0,0,0,0,0,0,0,0,0,0,0,0,0,0,0,0,0,0,0,0,0,0,0,0,0,0,0,0,0,0,0,0,0,0,0,0,0,0,0,0,0,0,0,0,0,0,0,0,0,0,0,0,0,0,0,0,0,0,0,0],"id":14,"left_children":[1,3,5,7,9,11,13,15,17,19,21,23,25,27,29,31,33,35,37,39,41,43,45,47,49,51,53,55,57,59,61,-1,-1,-1,-1,-1,-1,-1,-1,-1,-1,-1,-1,-1,-1,-1,-1,-1,-1,-1,-1,-1,-1,-1,-1,-1,-1,-1,-1,-1,-1,-1,-1],"loss_changes":[1.9244669E5,2.6575352E4,1.8460992E4,1.8314531E3,2.9455928E3,5.2675566E3,1.3477266E3,9.890625E1,3.2920703E2,4.690537E2,9.049555E2,1.8419844E3,8.308633E2,3.745625E2,4.711172E2,3.7597656E1,1.1127344E2,2.9872656E2,2.6346875E2,4.415371E2,4.2856567E2,5.7553125E2,4.012999E2,9.649035E2,6.248496E2,5.762207E2,4.2022546E2,2.6007422E2,1.1075586E2,1.0661545E0,2.5383203E2,0E0,0E0,0E0,0E0,0E0,0E0,0E0,0E0,0E0,0E0,0E0,0E0,0E0,0E0,0E0,0E0,0E0,0E0,0E0,0E0,0E0,0E0,0E0,0E0,0E0,0E0,0E0,0E0,0E0,0E0,0E0,0E0],"parents":[2147483647,0,0,1,1,2,2,3,3,4,4,5,5,6,6,7,7,8,8,9,9,10,10,11,11,12,12,13,13,14,14,15,15,16,16,17,17,18,18,19,19,20,20,21,21,22,22,23,23,24,24,25,25,26,26,27,27,28,28,29,29,30,30],"right_children":[2,4,6,8,10,12,14,16,18,20,22,24,26,28,30,32,34,36,38,40,42,44,46,48,50,52,54,56,58,60,62,-1,-1,-1,-1,-1,-1,-1,-1,-1,-1,-1,-1,-1,-1,-1,-1,-1,-1,-1,-1,-1,-1,-1,-1,-1,-1,-1,-1,-1,-1,-1,-1],"split_conditions":[1.3941667E2,1.8833334E1,1.234E3,3.5833333E0,5.7833332E1,4.8241666E2,3.412E3,1.2E1,7.0833335E0,2.3E1,1.19E2,1.78E2,2.2E1,1.383E3,1E1,8.333333E-1,2.4E1,1.3E1,2.6E1,4.0666668E1,1.8333334E0,5.6E1,3.03E2,2.9E2,2.5925E2,1E0,-5E-1,1.3333334E0,7E0,1.15E2,4E0,-5.6841116E-2,-5.2974474E-2,-4.8994806E-2,-5.5420276E-2,-4.71353E-2,-3.2591157E-2,-3.953578E-2,-2.8613849E-2,-2.9377481E-2,-1.7934278E-2,9.121404E-3,-1.7996207E-2,-1.5790492E-2,-4.038387E-3,8.6228695E-4,2.384288E-2,6.6818023E-4,1.6870081E-2,1.2621438E-2,2.4012422E-2,5.3242464E-2,3.257104E-2,3.7609298E-2,1.3857229E-2,-5.670851E-2,3.746373E-2,9.3714596E-4,4.7776364E-2,-5.5348113E-2,-3.3154827E-2,-5.888071E-3,5.507423E-2],"split_indices":[14,14,11,14,14,14,11,20,14,11,0,0,19,10,1,13,19,11,20,12,13,10,11,10,14,3,17,12,19,0,16,0,0,0,0,0,0,0,0,0,0,0,0,0,0,0,0,0,0,0,0,0,0,0,0,0,0,0,0,0,0,0,0],"split_type":[0,0,0,0,0,0,0,0,0,0,0,0,0,0,0,0,0,0,0,0,0,0,0,0,0,0,0,0,0,0,0,0,0,0,0,0,0,0,0,0,0,0,0,0,0,0,0,0,0,0,0,0,0,0,0,0,0,0,0,0,0,0,0],"sum_hessian":[1.82023E5,9.136899E4,9.065401E4,4.7349027E4,4.4019965E4,5.919408E4,3.1459934E4,2.2911412E4,2.4437615E4,2.2841283E4,2.1178684E4,3.394348E4,2.5250596E4,1.274004E4,1.8719893E4,9.970167E3,1.2941245E4,9.775888E3,1.4661728E4,1.3041694E4,9.799589E3,1.5003493E4,6.17519E3,1.5422175E4,1.8521307E4,2.124979E4,4.000807E3,6.693178E3,6.0468623E3,3.696329E1,1.868293E4,4.4433867E3,5.526781E3,9.582244E3,3.3590002E3,8.261534E3,1.5143536E3,1.2273755E4,2.3879731E3,8.220231E3,4.821463E3,5.5547565E2,9.244113E3,7.4407744E3,7.5627188E3,5.3929595E3,7.8223047E2,1.0617598E4,4.804577E3,6.928013E3,1.1593294E4,1.2942646E3,1.9955525E4,8.5163477E2,3.149172E3,2.5654598E1,6.667524E3,4.5821423E1,6.0010405E3,2.852538E1,8.437914E0,6.1489227E1,1.862144E4],"tree_param":{"num_deleted":"0","num_feature":"21","num_nodes":"63","size_leaf_vector":"1"}},{"base_weights":[-1.1119185E-4,-1.0705943E0,9.4980896E-1,-1.5260239E0,-5.160495E-1,4.499977E-1,1.4074401E0,-1.7349888E0,-1.3318006E0,-7.7292395E-1,-3.215037E-1,1.08184285E-1,6.553488E-1,1.1044205E0,1.7468688E0,-1.8140414E0,-1.674162E0,-1.4764581E0,-1.2357342E0,-8.040273E-1,-1.0122785E-1,-3.7144232E-1,3.881206E-1,-6.1435606E-2,5.247732E-1,4.3971226E-1,8.066795E-1,8.8883543E-1,1.2399838E0,1.5999225E0,1.8658701E0,-5.66619E-2,-5.2616082E-2,-4.702185E-2,-5.291524E-2,-4.6583995E-2,-3.1896457E-2,-3.8856015E-2,-2.7946511E-2,-2.4596E-2,1.7130101E-2,3.0649759E-2,-1.32983085E-2,-1.7728502E-2,-6.7734583E-3,2.3632646E-2,-1.9972713E-3,-1.6771596E-2,1.8036247E-3,6.880161E-3,3.1538915E-2,1.1863119E-2,3.2768037E-2,2.2383938E-2,3.4010477E-2,5.143942E-3,2.8951118E-2,5.4446723E-2,3.531289E-2,4.1005984E-2,5.1140178E-2,-2.8984949E-2,5.615406E-2],"categories":[],"categories_nodes":[],"categories_segments":[],"categories_sizes":[],"default_left":[0,0,0,0,0,0,0,0,0,0,0,0,0,0,0,0,0,0,0,0,0,0,0,0,0,0,0,0,0,0,0,0,0,0,0,0,0,0,0,0,0,0,0,0,0,0,0,0,0,0,0,0,0,0,0,0,0,0,0,0,0,0,0],"id":15,"left_children":[1,3,5,7,9,11,13,15,17,19,21,23,25,27,29,31,33,35,37,39,41,43,45,47,49,51,53,55,57,59,61,-1,-1,-1,-1,-1,-1,-1,-1,-1,-1,-1,-1,-1,-1,-1,-1,-1,-1,-1,-1,-1,-1,-1,-1,-1,-1,-1,-1,-1,-1,-1,-1],"loss_changes":[1.8314331E5,2.1385297E4,2.182604E4,1.8846641E3,1.908042E3,3.201541E3,5.1216562E3,1.04640625E2,3.3310547E2,3.437168E2,7.702324E2,1.2097296E3,9.294697E2,7.6815234E2,4.0784375E2,4.0396484E1,1.1853906E2,3.0161523E2,2.6088086E2,3.430078E2,2.8061227E2,6.4901245E2,2.5975787E2,7.3599194E2,7.7031665E2,3.3912134E2,3.3064258E2,5.555112E2,5.820254E2,2.5448047E2,2.1978906E2,0E0,0E0,0E0,0E0,0E0,0E0,0E0,0E0,0E0,0E0,0E0,0E0,0E0,0E0,0E0,0E0,0E0,0E0,0E0,0E0,0E0,0E0,0E0,0E0,0E0,0E0,0E0,0E0,0E0,0E0,0E0,0E0],"parents":[2147483647,0,0,1,1,2,2,3,3,4,4,5,5,6,6,7,7,8,8,9,9,10,10,11,11,12,12,13,13,14,14,15,15,16,16,17,17,18,18,19,19,20,20,21,21,22,22,23,23,24,24,25,25,26,26,27,27,28,28,29,29,30,30],"right_children":[2,4,6,8,10,12,14,16,18,20,22,24,26,28,30,32,34,36,38,40,42,44,46,48,50,52,54,56,58,60,62,-1,-1,-1,-1,-1,-1,-1,-1,-1,-1,-1,-1,-1,-1,-1,-1,-1,-1,-1,-1,-1,-1,-1,-1,-1,-1,-1,-1,-1,-1,-1,-1],"split_conditions":[1.09666664E2,1.8833334E1,5.68E2,3.5833333E0,4.3333332E1,1.34E2,1.944E3,1.2E1,7.0833335E0,1.55E2,3.28E2,2.84E2,2.5925E2,5.12E2,5.751E3,8.333333E-1,-1.8369701E-16,1.3E1,2.6E1,3.16E2,-8.660254E-1,3E1,1E0,8E0,2.4566667E2,1.088E3,8.98E2,5.6E1,4E0,1.616E3,9E0,-5.66619E-2,-5.2616082E-2,-4.702185E-2,-5.291524E-2,-4.6583995E-2,-3.1896457E-2,-3.8856015E-2,-2.7946511E-2,-2.4596E-2,1.7130101E-2,3.0649759E-2,-1.32983085E-2,-1.7728502E-2,-6.7734583E-3,2.3632646E-2,-1.9972713E-3,-1.6771596E-2,1.8036247E-3,6.880161E-3,3.1538915E-2,1.1863119E-2,3.2768037E-2,2.2383938E-2,3.4010477E-2,5.143942E-3,2.8951118E-2,5.4446723E-2,3.531289E-2,4.1005984E-2,5.1140178E-2,-2.8984949E-2,5.615406E-2],"split_indices":[14,14,14,14,14,11,11,20,14,10,11,9,14,0,11,13,18,11,20,0,18,0,7,10,12,11,10,10,6,10,19,0,0,0,0,0,0,0,0,0,0,0,0,0,0,0,0,0,0,0,0,0,0,0,0,0,0,0,0,0,0,0,0],"split_type":[0,0,0,0,0,0,0,0,0,0,0,0,0,0,0,0,0,0,0,0,0,0,0,0,0,0,0,0,0,0,0,0,0,0,0,0,0,0,0,0,0,0,0,0,0,0,0,0,0,0,0,0,0,0,0,0,0,0,0,0,0,0,0],"sum_hessian":[1.8010233E5,8.467751E4,9.542482E4,4.649276E4,3.8184746E4,4.5611383E4,4.9813434E4,2.2392611E4,2.410015E4,1.645496E4,2.1729783E4,1.7118547E4,2.8492838E4,2.6320492E4,2.3492941E4,9.724937E3,1.2667675E4,9.611979E3,1.4488172E4,1.5726536E4,7.284254E2,2.030157E4,1.4282125E3,1.216589E4,4.9526567E3,1.1751546E4,1.6741291E4,1.0164126E4,1.6156366E4,1.051865E4,1.2974291E4,4.3255034E3,5.399433E3,5.791335E3,6.87634E3,8.1108384E3,1.5011407E3,1.2116255E4,2.3719167E3,1.554784E4,1.7869627E2,1.6961679E2,5.588086E2,8.0967876E3,1.2204782E4,7.597409E2,6.684717E2,2.3877048E3,9.778186E3,3.1734556E3,1.7792013E3,1.1006384E4,7.451614E2,1.4128521E4,2.6127698E3,9.763101E2,9.187816E3,1.5902943E3,1.4566071E4,3.2660774E3,7.252573E3,2.6780628E1,1.294751E4],"tree_param":{"num_deleted":"0","num_feature":"21","num_nodes":"63","size_leaf_vector":"1"}},{"base_weights":[-1.1192747E-4,-9.8507196E-1,9.9222386E-1,-1.5073425E0,-4.4037908E-1,6.68086E-1,1.6213698E0,-1.7219844E0,-1.3096533E0,-6.7845017E-1,-1.8521169E-1,4.2128813E-1,1.0039984E0,1.3589647E0,1.8036424E0,-1.8042212E0,-1.6589411E0,-1.4563382E0,-1.212727E0,-8.424627E-1,-5.5440426E-1,-3.125034E-1,1.2366544E-1,1.7677683E-1,6.258732E-1,1.0826609E0,5.9054357E-1,1.193067E0,1.5451392E0,-1.7074108E0,1.810936E0,-5.6473423E-2,-5.224326E-2,-4.79675E-2,-5.4931965E-2,-4.601895E-2,-3.1204823E-2,-3.8170762E-2,-2.7286103E-2,-2.9449988E-2,-1.0631211E-2,-2.312619E-2,-1.3339435E-2,-1.5094376E-2,-3.7632463E-3,9.0747967E-4,2.2735067E-2,4.4767346E-4,1.6066276E-2,1.2006025E-2,2.2848334E-2,5.263722E-2,3.1206256E-2,3.6312338E-2,1.2764067E-2,-5.665454E-2,3.615946E-2,-2.3328293E-4,4.6722922E-2,-5.5249147E-2,-3.355867E-2,-6.3899066E-3,5.4539077E-2],"categories":[],"categories_nodes":[],"categories_segments":[],"categories_sizes":[],"default_left":[0,0,0,0,0,0,0,0,0,0,0,0,0,0,0,0,0,0,0,0,0,0,0,0,0,0,0,0,0,0,0,0,0,0,0,0,0,0,0,0,0,0,0,0,0,0,0,0,0,0,0,0,0,0,0,0,0,0,0,0,0,0,0],"id":16,"left_children":[1,3,5,7,9,11,13,15,17,19,21,23,25,27,29,31,33,35,37,39,41,43,45,47,49,51,53,55,57,59,61,-1,-1,-1,-1,-1,-1,-1,-1,-1,-1,-1,-1,-1,-1,-1,-1,-1,-1,-1,-1,-1,-1,-1,-1,-1,-1,-1,-1,-1,-1,-1,-1],"loss_changes":[1.7423511E5,2.5449633E4,1.8107594E4,1.9356797E3,2.6602148E3,4.858215E3,1.4416406E3,1.1050781E2,3.363125E2,4.6045312E2,8.3116925E2,1.690001E3,8.0663086E2,3.805254E2,4.5927344E2,4.332422E1,1.2524219E2,3.0389453E2,2.5781445E2,6.623755E2,3.0619678E2,5.3379736E2,3.6549356E2,8.938156E2,5.631675E2,5.9297656E2,4.0568787E2,2.4953223E2,1.11296875E2,8.990936E-1,2.5344531E2,0E0,0E0,0E0,0E0,0E0,0E0,0E0,0E0,0E0,0E0,0E0,0E0,0E0,0E0,0E0,0E0,0E0,0E0,0E0,0E0,0E0,0E0,0E0,0E0,0E0,0E0,0E0,0E0,0E0,0E0,0E0,0E0],"parents":[2147483647,0,0,1,1,2,2,3,3,4,4,5,5,6,6,7,7,8,8,9,9,10,10,11,11,12,12,13,13,14,14,15,15,16,16,17,17,18,18,19,19,20,20,21,21,22,22,23,23,24,24,25,25,26,26,27,27,28,28,29,29,30,30],"right_children":[2,4,6,8,10,12,14,16,18,20,22,24,26,28,30,32,34,36,38,40,42,44,46,48,50,52,54,56,58,60,62,-1,-1,-1,-1,-1,-1,-1,-1,-1,-1,-1,-1,-1,-1,-1,-1,-1,-1,-1,-1,-1,-1,-1,-1,-1,-1,-1,-1,-1,-1,-1,-1],"split_conditions":[1.3941667E2,1.8833334E1,1.234E3,3.5833333E0,5.7833332E1,4.8241666E2,3.412E3,1.2E1,7.0833335E0,2.3666666E1,1.19E2,1.78E2,2.2E1,1.383E3,1E1,8.333333E-1,2.4E1,1.3E1,2.6E1,6.6E1,3.1833334E1,5.6E1,2.91E2,2.9E2,2.5925E2,1E0,-5E-1,1.3333334E0,7E0,1.15E2,4E0,-5.6473423E-2,-5.224326E-2,-4.79675E-2,-5.4931965E-2,-4.601895E-2,-3.1204823E-2,-3.8170762E-2,-2.7286103E-2,-2.9449988E-2,-1.0631211E-2,-2.312619E-2,-1.3339435E-2,-1.5094376E-2,-3.7632463E-3,9.0747967E-4,2.2735067E-2,4.4767346E-4,1.6066276E-2,1.2006025E-2,2.2848334E-2,5.263722E-2,3.1206256E-2,3.6312338E-2,1.2764067E-2,-5.665454E-2,3.615946E-2,-2.3328293E-4,4.6722922E-2,-5.5249147E-2,-3.355867E-2,-6.3899066E-3,5.4539077E-2],"split_indices":[14,14,11,14,14,14,11,20,14,12,0,0,19,10,1,13,19,11,20,11,14,10,11,10,14,3,17,12,19,0,16,0,0,0,0,0,0,0,0,0,0,0,0,0,0,0,0,0,0,0,0,0,0,0,0,0,0,0,0,0,0,0,0],"split_type":[0,0,0,0,0,0,0,0,0,0,0,0,0,0,0,0,0,0,0,0,0,0,0,0,0,0,0,0,0,0,0,0,0,0,0,0,0,0,0,0,0,0,0,0,0,0,0,0,0,0,0,0,0,0,0,0,0,0,0,0,0,0,0],"sum_hessian":[1.7825986E5,8.946241E4,8.879745E4,4.567033E4,4.379208E4,5.8605695E4,3.0191758E4,2.1892621E4,2.3777709E4,2.2654127E4,2.1137951E4,3.378546E4,2.4820232E4,1.2379011E4,1.7812748E4,9.488166E3,1.2404455E4,9.454927E3,1.4322781E4,9.752998E3,1.2901129E4,1.4969034E4,6.1689175E3,1.5391757E4,1.8393705E4,2.085148E4,3.9687524E3,6.549892E3,5.8291187E3,3.644307E1,1.7776305E4,4.211469E3,5.276697E3,9.20479E3,3.1996658E3,7.9663315E3,1.4885956E3,1.1966077E4,2.356704E3,7.5879062E3,2.1650916E3,4.3384775E3,8.562651E3,7.412726E3,7.5563076E3,5.377792E3,7.911253E2,1.0607367E4,4.7843896E3,6.9097656E3,1.1483939E4,1.2367365E3,1.9614744E4,8.333033E2,3.1354492E3,2.5324417E1,6.5245674E3,4.5779E1,5.7833394E3,2.7944622E1,8.4984455E0,6.1458626E1,1.7714846E4],"tree_param":{"num_deleted":"0","num_feature":"21","num_nodes":"63","size_leaf_vector":"1"}},{"base_weights":[-1.1403706E-4,-1.0301485E0,9.1131836E-1,-1.4882776E0,-4.8866928E-1,5.9064615E-1,1.605565E0,-1.7085018E0,-1.2873079E0,-7.3480505E-1,-3.0349776E-1,2.4790482E-1,8.828004E-1,1.3373343E0,1.793842E0,-1.7939702E0,-1.6432303E0,-1.3887963E0,-1.1435167E0,-7.65377E-1,-7.808104E-2,-3.5138637E-1,3.7786722E-1,-2.7936953E-1,3.4604308E-1,8.145592E-1,1.3957046E0,1.1700972E0,1.5263491E0,-1.6959925E0,1.8011086E0,-5.6275316E-2,-5.1855788E-2,-4.586552E-2,-5.220099E-2,-4.2876173E-2,-2.2752402E-2,-2.9632605E-3,-3.5522133E-2,-2.3426317E-2,1.7047193E-2,-2.7523931E-2,1.0832291E-2,-1.6871797E-2,-6.3576708E-3,2.3032432E-2,-1.9215919E-3,8.574644E-3,-1.4388813E-2,7.834721E-3,2.2068635E-2,1.4989661E-2,2.7310796E-2,-1.0272195E-2,4.2873155E-2,-5.6532487E-2,3.54613E-2,-2.2643674E-4,4.6161346E-2,-5.5050034E-2,-3.2967847E-2,-6.2033837E-3,5.424774E-2],"categories":[],"categories_nodes":[],"categories_segments":[],"categories_sizes":[],"default_left":[0,0,0,0,0,0,0,0,0,0,0,0,0,0,0,0,0,0,0,0,0,0,0,0,0,0,0,0,0,0,0,0,0,0,0,0,0,0,0,0,0,0,0,0,0,0,0,0,0,0,0,0,0,0,0,0,0,0,0,0,0,0,0],"id":17,"left_children":[1,3,5,7,9,11,13,15,17,19,21,23,25,27,29,31,33,35,37,39,41,43,45,47,49,51,53,55,57,59,61,-1,-1,-1,-1,-1,-1,-1,-1,-1,-1,-1,-1,-1,-1,-1,-1,-1,-1,-1,-1,-1,-1,-1,-1,-1,-1,-1,-1,-1,-1,-1,-1],"loss_changes":[1.6569273E5,2.0553031E4,2.084511E4,1.9841953E3,1.7305732E3,6.41366E3,1.4916875E3,1.1650391E2,3.4092578E2,3.272588E2,7.0731445E2,1.5253695E3,1.2091387E3,3.840371E2,4.438086E2,4.6375E1,1.3189453E2,3.4929102E2,4.1158496E2,3.224541E2,2.68058E2,5.958037E2,2.4534781E2,5.237138E2,8.216328E2,9.202793E2,2.3612695E2,2.386836E2,1.0860254E2,1.0236053E0,2.4935938E2,0E0,0E0,0E0,0E0,0E0,0E0,0E0,0E0,0E0,0E0,0E0,0E0,0E0,0E0,0E0,0E0,0E0,0E0,0E0,0E0,0E0,0E0,0E0,0E0,0E0,0E0,0E0,0E0,0E0,0E0,0E0,0E0],"parents":[2147483647,0,0,1,1,2,2,3,3,4,4,5,5,6,6,7,7,8,8,9,9,10,10,11,11,12,12,13,13,14,14,15,15,16,16,17,17,18,18,19,19,20,20,21,21,22,22,23,23,24,24,25,25,26,26,27,27,28,28,29,29,30,30],"right_children":[2,4,6,8,10,12,14,16,18,20,22,24,26,28,30,32,34,36,38,40,42,44,46,48,50,52,54,56,58,60,62,-1,-1,-1,-1,-1,-1,-1,-1,-1,-1,-1,-1,-1,-1,-1,-1,-1,-1,-1,-1,-1,-1,-1,-1,-1,-1,-1,-1,-1,-1,-1,-1],"split_conditions":[1.09666664E2,1.8833334E1,1.234E3,3.5833333E0,4.3333332E1,3.2075E2,3.412E3,1.2E1,6E0,1.55E2,3.28E2,1.6E1,1.829E3,1.383E3,1E1,8.333333E-1,-1.8369701E-16,5E1,3.8333333E0,3.16E2,2.1E1,3E1,1E0,-5E-1,3.7E2,2.61E2,4E0,1.3333334E0,7E0,1.15E2,4E0,-5.6275316E-2,-5.1855788E-2,-4.586552E-2,-5.220099E-2,-4.2876173E-2,-2.2752402E-2,-2.9632605E-3,-3.5522133E-2,-2.3426317E-2,1.7047193E-2,-2.7523931E-2,1.0832291E-2,-1.6871797E-2,-6.3576708E-3,2.3032432E-2,-1.9215919E-3,8.574644E-3,-1.4388813E-2,7.834721E-3,2.2068635E-2,1.4989661E-2,2.7310796E-2,-1.0272195E-2,4.2873155E-2,-5.6532487E-2,3.54613E-2,-2.2643674E-4,4.6161346E-2,-5.5050034E-2,-3.2967847E-2,-6.2033837E-3,5.424774E-2],"split_indices":[14,14,11,14,14,14,11,20,11,10,11,10,0,10,1,13,18,2,14,0,19,0,7,17,0,9,9,12,19,0,16,0,0,0,0,0,0,0,0,0,0,0,0,0,0,0,0,0,0,0,0,0,0,0,0,0,0,0,0,0,0,0,0],"split_type":[0,0,0,0,0,0,0,0,0,0,0,0,0,0,0,0,0,0,0,0,0,0,0,0,0,0,0,0,0,0,0,0,0,0,0,0,0,0,0,0,0,0,0,0,0,0,0,0,0,0,0,0,0,0,0,0,0,0,0,0,0,0,0],"sum_hessian":[1.7649089E5,8.285457E4,9.363632E4,4.4880664E4,3.797391E4,6.4052395E4,2.958393E4,2.141091E4,2.3469752E4,1.6301919E4,2.167199E4,2.947527E4,3.4577125E4,1.2204617E4,1.7379312E4,9.259622E3,1.2151287E4,1.3753681E4,9.716071E3,1.5576627E4,7.2529193E2,2.0249287E4,1.4227039E3,4.6248994E3,2.485037E4,3.0519184E4,4.057942E3,6.479158E3,5.725459E3,3.5629417E1,1.7343682E4,4.101178E3,5.1584443E3,5.5776646E3,6.5736226E3,1.2923948E4,8.297331E2,3.6319116E2,9.352881E3,1.5398074E4,1.7855284E2,2.4875157E2,4.7654034E2,8.0566567E3,1.219263E4,7.5546436E2,6.672395E2,1.2098599E3,3.4150396E3,2.0405795E4,4.4445757E3,7.1203335E3,2.339885E4,7.633508E1,3.9816067E3,2.4630365E1,6.454528E3,4.577898E1,5.67968E3,2.721892E1,8.410496E0,6.1437683E1,1.7282244E4],"tree_param":{"num_deleted":"0","num_feature":"21","num_nodes":"63","size_leaf_vector":"1"}},{"base_weights":[-1.1662271E-4,-9.461753E-1,9.5266724E-1,-1.4688934E0,-4.170287E-1,6.348218E-1,1.5893269E0,-1.6945373E0,-1.2648722E0,-6.4419115E-1,-1.7497225E-1,4.0070835E-1,9.6669215E-1,1.3154649E0,1.7836097E0,-1.7832785E0,-1.6270311E0,-1.4175692E0,-1.1647872E0,-8.055568E-1,-5.2279633E-1,-2.9435632E-1,1.2903841E-1,1.6673578E-1,6.025664E-1,8.16202E-1,1.2317367E0,1.1470863E0,1.5071217E0,-1.6842488E0,1.7908475E0,-5.606719E-2,-5.145351E-2,-4.6878997E-2,-5.44015E-2,-4.4917982E-2,-2.9904153E-2,-3.677641E-2,-2.5711024E-2,-2.8288051E-2,-9.840768E-3,-1.6876196E-2,1.6027784E-3,-2.1429839E-2,-6.004216E-3,-7.820026E-3,8.093863E-3,-1.2141272E-2,9.958082E-3,1.5720226E-2,3.0051287E-2,1.9219458E-2,2.824725E-2,5.6767616E-2,3.446465E-2,-5.640583E-2,3.4761976E-2,1.894543E-2,4.5864355E-2,-5.4842863E-2,-3.237768E-2,-6.0222023E-3,5.3943355E-2],"categories":[],"categories_nodes":[],"categories_segments":[],"categories_sizes":[],"default_left":[0,0,0,0,0,0,0,0,0,0,0,0,0,0,0,0,0,0,0,0,0,0,0,0,0,0,0,0,0,0,0,0,0,0,0,0,0,0,0,0,0,0,0,0,0,0,0,0,0,0,0,0,0,0,0,0,0,0,0,0,0,0,0],"id":18,"left_children":[1,3,5,7,9,11,13,15,17,19,21,23,25,27,29,31,33,35,37,39,41,43,45,47,49,51,53,55,57,59,61,-1,-1,-1,-1,-1,-1,-1,-1,-1,-1,-1,-1,-1,-1,-1,-1,-1,-1,-1,-1,-1,-1,-1,-1,-1,-1,-1,-1,-1,-1,-1,-1],"loss_changes":[1.5756222E5,2.4259266E4,1.7622492E4,2.0290781E3,2.396621E3,4.5130254E3,1.5406484E3,1.2259375E2,3.5253125E2,4.4004395E2,7.6597174E2,1.6087197E3,9.5739453E2,3.867793E2,4.2875E2,4.955664E1,1.4007812E2,3.0605273E2,2.6226562E2,6.328584E2,2.9396143E2,5.9944336E2,3.265189E2,1.48966E3,5.72876E2,3.3678223E2,4.742998E2,2.2827148E2,1.059043E2,1.1462784E0,2.4525781E2,0E0,0E0,0E0,0E0,0E0,0E0,0E0,0E0,0E0,0E0,0E0,0E0,0E0,0E0,0E0,0E0,0E0,0E0,0E0,0E0,0E0,0E0,0E0,0E0,0E0,0E0,0E0,0E0,0E0,0E0,0E0,0E0],"parents":[2147483647,0,0,1,1,2,2,3,3,4,4,5,5,6,6,7,7,8,8,9,9,10,10,11,11,12,12,13,13,14,14,15,15,16,16,17,17,18,18,19,19,20,20,21,21,22,22,23,23,24,24,25,25,26,26,27,27,28,28,29,29,30,30],"right_children":[2,4,6,8,10,12,14,16,18,20,22,24,26,28,30,32,34,36,38,40,42,44,46,48,50,52,54,56,58,60,62,-1,-1,-1,-1,-1,-1,-1,-1,-1,-1,-1,-1,-1,-1,-1,-1,-1,-1,-1,-1,-1,-1,-1,-1,-1,-1,-1,-1,-1,-1,-1,-1],"split_conditions":[1.3941667E2,1.8833334E1,1.234E3,3.5833333E0,5.7833332E1,4.15E2,3.412E3,1.2E1,7.0833335E0,2.3666666E1,1.2E2,1.93E2,8.475E2,1.383E3,1E1,8.333333E-1,2.4E1,1.3E1,2.6E1,6.6E1,2.13E2,4E0,5E0,2.4E1,1.234E3,3.2E2,1E0,1.3333334E0,1.3E1,1.15E2,4E0,-5.606719E-2,-5.145351E-2,-4.6878997E-2,-5.44015E-2,-4.4917982E-2,-2.9904153E-2,-3.677641E-2,-2.5711024E-2,-2.8288051E-2,-9.840768E-3,-1.6876196E-2,1.6027784E-3,-2.1429839E-2,-6.004216E-3,-7.820026E-3,8.093863E-3,-1.2141272E-2,9.958082E-3,1.5720226E-2,3.0051287E-2,1.9219458E-2,2.824725E-2,5.6767616E-2,3.446465E-2,-5.640583E-2,3.4761976E-2,1.894543E-2,4.5864355E-2,-5.4842863E-2,-3.237768E-2,-6.0222023E-3,5.3943355E-2],"split_indices":[14,14,11,14,14,0,11,20,14,12,11,10,14,10,1,13,19,11,20,11,0,1,16,0,10,9,3,12,19,0,16,0,0,0,0,0,0,0,0,0,0,0,0,0,0,0,0,0,0,0,0,0,0,0,0,0,0,0,0,0,0,0,0],"split_type":[0,0,0,0,0,0,0,0,0,0,0,0,0,0,0,0,0,0,0,0,0,0,0,0,0,0,0,0,0,0,0,0,0,0,0,0,0,0,0,0,0,0,0,0,0,0,0,0,0,0,0,0,0,0,0,0,0,0,0,0,0,0,0],"sum_hessian":[1.7479727E5,8.770818E4,8.7089086E4,4.412121E4,4.358697E4,5.809018E4,2.8998902E4,2.0946951E4,2.3174258E4,2.2484398E4,2.110257E4,3.4063066E4,2.4027115E4,1.20379375E4,1.6960965E4,9.039077E3,1.1907875E4,9.170268E3,1.400399E4,9.650589E3,1.283381E4,1.5152328E4,5.9502417E3,1.5777397E4,1.8285668E4,1.532805E4,8.699065E3,6.4118477E3,5.62609E3,3.4842896E1,1.6926123E4,3.9945273E3,5.0445493E3,8.856661E3,3.0512146E3,7.7077793E3,1.4624882E3,1.1681976E4,2.3220146E3,7.493773E3,2.1568157E3,1.2005766E4,8.280445E2,2.775191E3,1.2377137E4,1.5786558E3,4.371586E3,3.537919E3,1.2239479E4,1.5280494E4,3.0051736E3,6.3885737E3,8.939477E3,9.67773E2,7.7312925E3,2.395751E1,6.38789E3,1.3672589E2,5.489364E3,2.6516497E1,8.326401E0,6.141796E1,1.6864705E4],"tree_param":{"num_deleted":"0","num_feature":"21","num_nodes":"63","size_leaf_vector":"1"}},{"base_weights":[-1.17654665E-4,-9.8994523E-1,8.7338835E-1,-1.4538133E0,-4.6771738E-1,5.6047773E-1,1.5726628E0,-1.6800903E0,-1.2474853E0,-7.0478404E-1,-2.859753E-1,2.3196456E-1,8.4316725E-1,1.2933844E0,1.7729353E0,-1.6991098E0,-1.3433752E0,-1.3964587E0,-1.1474078E0,-7.714156E-1,-3.6934063E-1,-3.8876256E-1,1.661548E-2,-1.0322883E-1,3.7337136E-1,7.7596027E-1,1.357033E0,1.1240629E0,1.4874777E0,-1.672179E0,1.7801423E0,-5.11634E-2,-1.4868782E-2,3.207895E-2,-4.890301E-2,-4.4315826E-2,-2.9225484E-2,-3.638936E-2,-2.4687156E-2,-2.8809313E-2,-1.7730013E-2,3.7044683E-3,-2.317946E-2,-1.8897323E-2,-8.687771E-3,-1.8617768E-3,2.7266473E-2,-1.7764876E-2,3.948028E-3,8.747501E-3,2.318111E-2,4.7342246E-3,2.468569E-2,5.355695E-2,3.6222145E-2,-5.627442E-2,3.406236E-2,-7.759534E-4,4.5003347E-2,-5.4627378E-2,-3.17887E-2,-5.8462047E-3,5.3625602E-2],"categories":[],"categories_nodes":[],"categories_segments":[],"categories_sizes":[],"default_left":[0,0,0,0,0,0,0,0,0,0,0,0,0,0,0,0,0,0,0,0,0,0,0,0,0,0,0,0,0,0,0,0,0,0,0,0,0,0,0,0,0,0,0,0,0,0,0,0,0,0,0,0,0,0,0,0,0,0,0,0,0,0,0],"id":19,"left_children":[1,3,5,7,9,11,13,15,17,19,21,23,25,27,29,31,33,35,37,39,41,43,45,47,49,51,53,55,57,59,61,-1,-1,-1,-1,-1,-1,-1,-1,-1,-1,-1,-1,-1,-1,-1,-1,-1,-1,-1,-1,-1,-1,-1,-1,-1,-1,-1,-1,-1,-1,-1,-1],"loss_changes":[1.4972294E5,1.9664258E4,2.0127086E4,2.0050234E3,1.6451406E3,5.9017188E3,1.5882422E3,1.2900781E2,3.3370703E2,3.7009766E2,6.7238513E2,1.3933259E3,1.1786055E3,3.8874414E2,4.1409766E2,1.4711719E2,7.633074E2,3.0651367E2,2.8537305E2,4.705498E2,5.46301E2,3.857224E2,3.8491736E2,1.0015371E3,6.7499414E2,8.7561523E2,2.5088379E2,2.1828027E2,1.0580469E2,1.2668228E0,2.41125E2,0E0,0E0,0E0,0E0,0E0,0E0,0E0,0E0,0E0,0E0,0E0,0E0,0E0,0E0,0E0,0E0,0E0,0E0,0E0,0E0,0E0,0E0,0E0,0E0,0E0,0E0,0E0,0E0,0E0,0E0,0E0,0E0],"parents":[2147483647,0,0,1,1,2,2,3,3,4,4,5,5,6,6,7,7,8,8,9,9,10,10,11,11,12,12,13,13,14,14,15,15,16,16,17,17,18,18,19,19,20,20,21,21,22,22,23,23,24,24,25,25,26,26,27,27,28,28,29,29,30,30],"right_children":[2,4,6,8,10,12,14,16,18,20,22,24,26,28,30,32,34,36,38,40,42,44,46,48,50,52,54,56,58,60,62,-1,-1,-1,-1,-1,-1,-1,-1,-1,-1,-1,-1,-1,-1,-1,-1,-1,-1,-1,-1,-1,-1,-1,-1,-1,-1,-1,-1,-1,-1,-1,-1],"split_conditions":[1.09666664E2,1.8333334E1,1.234E3,3.5833333E0,4.3333332E1,3.2075E2,3.412E3,3E1,7.0833335E0,6.3E1,1.04E2,6.2E1,1.829E3,1.383E3,1E1,1.0666667E1,1.6666667E-1,1.3E1,2.6E1,1.5E1,2E0,1.1E1,2.16E2,2.7E1,3.84E2,2.4E1,1.4E1,1.3333334E0,7E0,1.15E2,4E0,-5.11634E-2,-1.4868782E-2,3.207895E-2,-4.890301E-2,-4.4315826E-2,-2.9225484E-2,-3.638936E-2,-2.4687156E-2,-2.8809313E-2,-1.7730013E-2,3.7044683E-3,-2.317946E-2,-1.8897323E-2,-8.687771E-3,-1.8617768E-3,2.7266473E-2,-1.7764876E-2,3.948028E-3,8.747501E-3,2.318111E-2,4.7342246E-3,2.468569E-2,5.355695E-2,3.6222145E-2,-5.627442E-2,3.406236E-2,-7.759534E-4,4.5003347E-2,-5.4627378E-2,-3.17887E-2,-5.8462047E-3,5.3625602E-2],"split_indices":[14,14,11,14,14,14,11,20,14,11,0,10,0,10,1,12,14,11,20,0,4,11,10,0,0,0,6,12,19,0,16,0,0,0,0,0,0,0,0,0,0,0,0,0,0,0,0,0,0,0,0,0,0,0,0,0,0,0,0,0,0,0,0],"split_type":[0,0,0,0,0,0,0,0,0,0,0,0,0,0,0,0,0,0,0,0,0,0,0,0,0,0,0,0,0,0,0,0,0,0,0,0,0,0,0,0,0,0,0,0,0,0,0,0,0,0,0,0,0,0,0,0,0,0,0,0,0,0,0],"sum_hessian":[1.731641E5,8.117696E4,9.198713E4,4.298967E4,3.8187293E4,6.3551145E4,2.8435992E4,2.0500229E4,2.2489443E4,1.6570127E4,2.1617164E4,2.9394104E4,3.415704E4,1.1878696E4,1.6557295E4,1.9400342E4,1.0998854E3,9.031845E3,1.3457599E4,1.3823055E4,2.7470737E3,1.6135724E4,5.4814395E3,8.721282E3,2.0672822E4,3.0208648E4,3.948391E3,6.3478213E3,5.5308755E3,3.4082706E1,1.6523213E4,1.929831E4,1.0203267E2,1.1653789E2,9.833475E2,7.5801E3,1.451745E3,1.1193117E4,2.2644814E3,6.75072E3,7.072334E3,1.236646E3,1.5104276E3,4.700457E3,1.1435267E4,5.0381377E3,4.4330206E2,2.8291829E3,5.892099E3,1.7159984E4,3.5128372E3,2.13048E3,2.807817E4,1.01960406E3,2.928787E3,2.3305237E1,6.324516E3,4.578264E1,5.485093E3,2.5836693E1,8.246013E0,6.1399376E1,1.6461814E4],"tree_param":{"num_deleted":"0","num_feature":"21","num_nodes":"63","size_leaf_vector":"1"}},{"base_weights":[-1.2040326E-4,-9.077489E-1,9.136267E-1,-1.4292527E0,-3.947063E-1,6.028041E-1,1.555579E0,-1.6655941E0,-1.2195916E0,-6.421246E-1,-1.934365E-1,3.7289593E-1,9.2211235E-1,1.271117E0,1.7618084E0,-1.7609138E0,-1.5935187E0,-1.3750467E0,-1.1187061E0,-6.701383E-1,7.7526085E-3,-3.0835018E-1,1.24609455E-1,1.4994006E-1,5.610342E-1,1.0008179E0,5.154346E-1,1.1010549E0,1.4674294E0,-1.6597825E0,1.7689829E0,-5.563908E-2,-5.060396E-2,-4.574805E-2,-5.3815685E-2,-4.370184E-2,-2.8552607E-2,-3.538738E-2,-2.4466468E-2,-2.6493689E-2,-1.7368602E-2,9.382749E-3,-2.806468E-2,-2.1860514E-2,-6.889433E-3,-8.170258E-3,7.871237E-3,-2.0168209E-6,1.4520216E-2,1.05979275E-2,2.06212E-2,5.1547218E-2,2.8728317E-2,1.1659025E-2,3.8744044E-2,-5.6138087E-2,3.3363298E-2,1.7679721E-2,4.469177E-2,-5.440333E-2,-3.12014E-2,-5.675252E-3,5.3294167E-2],"categories":[],"categories_nodes":[],"categories_segments":[],"categories_sizes":[],"default_left":[0,0,0,0,0,0,0,0,0,0,0,0,0,0,0,0,0,0,0,0,0,0,0,0,0,0,0,0,0,0,0,0,0,0,0,0,0,0,0,0,0,0,0,0,0,0,0,0,0,0,0,0,0,0,0,0,0,0,0,0,0,0,0],"id":20,"left_children":[1,3,5,7,9,11,13,15,17,19,21,23,25,27,29,31,33,35,37,39,41,43,45,47,49,51,53,55,57,59,61,-1,-1,-1,-1,-1,-1,-1,-1,-1,-1,-1,-1,-1,-1,-1,-1,-1,-1,-1,-1,-1,-1,-1,-1,-1,-1,-1,-1,-1,-1,-1,-1],"loss_changes":[1.423139E5,2.3032438E4,1.7061344E4,2.1133906E3,2.1609585E3,4.229371E3,1.6342344E3,1.3504688E2,3.533125E2,3.543994E2,8.7469147E2,1.4050933E3,7.714551E2,3.8991406E2,3.9984766E2,5.6822266E1,1.544043E2,3.0634766E2,2.5235547E2,3.6192285E2,2.3201076E2,5.814082E2,3.4746655E2,7.683439E2,4.7665332E2,6.2470703E2,3.8452917E2,2.0869775E2,1.0564258E2,1.3848877E0,2.3697266E2,0E0,0E0,0E0,0E0,0E0,0E0,0E0,0E0,0E0,0E0,0E0,0E0,0E0,0E0,0E0,0E0,0E0,0E0,0E0,0E0,0E0,0E0,0E0,0E0,0E0,0E0,0E0,0E0,0E0,0E0,0E0,0E0],"parents":[2147483647,0,0,1,1,2,2,3,3,4,4,5,5,6,6,7,7,8,8,9,9,10,10,11,11,12,12,13,13,14,14,15,15,16,16,17,17,18,18,19,19,20,20,21,21,22,22,23,23,24,24,25,25,26,26,27,27,28,28,29,29,30,30],"right_children":[2,4,6,8,10,12,14,16,18,20,22,24,26,28,30,32,34,36,38,40,42,44,46,48,50,52,54,56,58,60,62,-1,-1,-1,-1,-1,-1,-1,-1,-1,-1,-1,-1,-1,-1,-1,-1,-1,-1,-1,-1,-1,-1,-1,-1,-1,-1,-1,-1,-1,-1,-1,-1],"split_conditions":[1.3941667E2,1.8833334E1,1.234E3,3.5833333E0,5.0083332E1,4.8241666E2,3.412E3,1.2E1,7.0833335E0,1.12E2,1.2E2,1.78E2,2.2E1,1.383E3,1E1,8.333333E-1,2.4E1,1.3E1,2.6E1,5E0,1E0,1E0,5E0,2.9E2,2.5925E2,1E0,1.829E3,1.3333334E0,1.3E1,1.15E2,4E0,-5.563908E-2,-5.060396E-2,-4.574805E-2,-5.3815685E-2,-4.370184E-2,-2.8552607E-2,-3.538738E-2,-2.4466468E-2,-2.6493689E-2,-1.7368602E-2,9.382749E-3,-2.806468E-2,-2.1860514E-2,-6.889433E-3,-8.170258E-3,7.871237E-3,-2.0168209E-6,1.4520216E-2,1.05979275E-2,2.06212E-2,5.1547218E-2,2.8728317E-2,1.1659025E-2,3.8744044E-2,-5.6138087E-2,3.3363298E-2,1.7679721E-2,4.469177E-2,-5.440333E-2,-3.12014E-2,-5.675252E-3,5.3294167E-2],"split_indices":[14,14,11,14,14,14,11,20,14,12,11,0,19,10,1,13,19,11,20,11,4,9,16,10,14,3,0,12,19,0,16,0,0,0,0,0,0,0,0,0,0,0,0,0,0,0,0,0,0,0,0,0,0,0,0,0,0,0,0,0,0,0,0],"split_type":[0,0,0,0,0,0,0,0,0,0,0,0,0,0,0,0,0,0,0,0,0,0,0,0,0,0,0,0,0,0,0,0,0,0,0,0,0,0,0,0,0,0,0,0,0,0,0,0,0,0,0,0,0,0,0,0,0,0,0,0,0,0,0],"sum_hessian":[1.7159638E5,8.6086414E4,8.550996E4,4.2690285E4,4.339613E4,5.7615457E4,2.7894504E4,2.0064994E4,2.2625293E4,1.946539E4,2.3930738E4,3.349824E4,2.411722E4,1.1726608E4,1.61678955E4,8.629295E3,1.1435699E4,8.899439E3,1.3725854E4,1.8660959E4,8.044324E2,1.7579201E4,6.351537E3,1.5331378E4,1.816686E4,2.020536E4,3.911861E3,6.286944E3,5.439664E3,3.3348064E1,1.6134548E4,3.7999941E3,4.8293003E3,8.525638E3,2.9100615E3,7.4578804E3,1.4415593E3,1.1428209E4,2.2976443E3,5.5916343E3,1.3069324E4,6.083768E2,1.960556E2,2.7710928E3,1.4808108E4,1.636167E3,4.71537E3,1.0581107E4,4.7502705E3,6.871004E3,1.1295856E4,1.1455533E3,1.9059807E4,3.3637412E3,5.481198E2,2.2672962E1,6.2642705E3,1.3537962E2,5.3042847E3,2.5178875E1,8.16919E0,6.1381866E1,1.6073166E4],"tree_param":{"num_deleted":"0","num_feature":"21","num_nodes":"63","size_leaf_vector":"1"}},{"base_weights":[-1.2068179E-4,-9.501981E-1,8.361031E-1,-1.4136343E0,-4.426474E-1,5.3154224E-1,1.5380859E0,-1.6501949E0,-1.2019929E0,-6.690778E-1,-2.700441E-1,2.193335E-1,8.026837E-1,1.248694E0,1.7502203E0,-1.5932689E0,-1.7792678E0,-1.3533568E0,-1.1012915E0,-7.3422486E-1,-3.4262976E-1,-3.6952224E-1,2.231963E-2,-2.7495039E-1,3.082898E-1,7.363584E-1,1.317915E0,1.0780897E0,1.4470061E0,-1.6470598E0,1.7573601E0,-5.0744675E-2,-1.4596363E-2,-5.4202694E-2,-3.8884107E-2,-4.3076646E-2,-2.7886122E-2,-3.4998626E-2,-2.3450585E-2,-2.7617663E-2,-1.6721688E-2,-3.0442499E-2,-1.7111452E-3,-1.243073E-2,3.7001092E-3,2.7441032E-2,-1.577193E-3,8.618153E-3,-1.4452038E-2,6.8796445E-3,2.0177713E-2,1.3037817E-2,2.4881875E-2,5.2993316E-2,3.494266E-2,-5.599666E-2,3.2665625E-2,1.7198034E-2,4.408516E-2,-5.4170478E-2,-3.0616282E-2,-5.5092024E-3,5.294876E-2],"categories":[],"categories_nodes":[],"categories_segments":[],"categories_sizes":[],"default_left":[0,0,0,0,0,0,0,0,0,0,0,0,0,0,0,0,0,0,0,0,0,0,0,0,0,0,0,0,0,0,0,0,0,0,0,0,0,0,0,0,0,0,0,0,0,0,0,0,0,0,0,0,0,0,0,0,0,0,0,0,0,0,0],"id":21,"left_children":[1,3,5,7,9,11,13,15,17,19,21,23,25,27,29,31,33,35,37,39,41,43,45,47,49,51,53,55,57,59,61,-1,-1,-1,-1,-1,-1,-1,-1,-1,-1,-1,-1,-1,-1,-1,-1,-1,-1,-1,-1,-1,-1,-1,-1,-1,-1,-1,-1,-1,-1,-1,-1],"loss_changes":[1.351434E5,1.872993E4,1.9341926E4,2.081961E3,1.485271E3,5.3413223E3,1.6783594E3,1.415586E2,3.334336E2,3.49375E2,6.273214E2,1.2897059E3,1.1530508E3,3.903086E2,3.8597656E2,1.4826523E3,7.7421875E1,3.0555957E2,2.746963E2,4.511089E2,5.2528595E2,3.5567554E2,3.660768E2,5.20272E2,7.149331E2,8.396826E2,2.6243457E2,1.9950977E2,1.04393555E2,1.5001907E0,2.3277344E2,0E0,0E0,0E0,0E0,0E0,0E0,0E0,0E0,0E0,0E0,0E0,0E0,0E0,0E0,0E0,0E0,0E0,0E0,0E0,0E0,0E0,0E0,0E0,0E0,0E0,0E0,0E0,0E0,0E0,0E0,0E0,0E0],"parents":[2147483647,0,0,1,1,2,2,3,3,4,4,5,5,6,6,7,7,8,8,9,9,10,10,11,11,12,12,13,13,14,14,15,15,16,16,17,17,18,18,19,19,20,20,21,21,22,22,23,23,24,24,25,25,26,26,27,27,28,28,29,29,30,30],"right_children":[2,4,6,8,10,12,14,16,18,20,22,24,26,28,30,32,34,36,38,40,42,44,46,48,50,52,54,56,58,60,62,-1,-1,-1,-1,-1,-1,-1,-1,-1,-1,-1,-1,-1,-1,-1,-1,-1,-1,-1,-1,-1,-1,-1,-1,-1,-1,-1,-1,-1,-1,-1,-1],"split_conditions":[1.09666664E2,1.8333334E1,1.234E3,3.5833333E0,4.3333332E1,3.2075E2,3.412E3,2.5E1,7.0833335E0,6.3E1,1.04E2,1.5E1,1.829E3,1.383E3,1E1,2.2E1,7E0,1.3E1,2.6E1,1.5E1,6E0,2.56E2,4.0833332E1,-5E-1,3.7E2,2.61E2,1.4E1,1.3333334E0,1.3E1,1.15E2,4E0,-5.0744675E-2,-1.4596363E-2,-5.4202694E-2,-3.8884107E-2,-4.3076646E-2,-2.7886122E-2,-3.4998626E-2,-2.3450585E-2,-2.7617663E-2,-1.6721688E-2,-3.0442499E-2,-1.7111452E-3,-1.243073E-2,3.7001092E-3,2.7441032E-2,-1.577193E-3,8.618153E-3,-1.4452038E-2,6.8796445E-3,2.0177713E-2,1.3037817E-2,2.4881875E-2,5.2993316E-2,3.494266E-2,-5.599666E-2,3.2665625E-2,1.7198034E-2,4.408516E-2,-5.4170478E-2,-3.0616282E-2,-5.5092024E-3,5.294876E-2],"split_indices":[14,14,11,14,14,14,11,19,14,11,0,10,0,10,1,19,8,11,20,0,16,11,13,17,0,9,6,12,19,0,16,0,0,0,0,0,0,0,0,0,0,0,0,0,0,0,0,0,0,0,0,0,0,0,0,0,0,0,0,0,0,0,0],"split_type":[0,0,0,0,0,0,0,0,0,0,0,0,0,0,0,0,0,0,0,0,0,0,0,0,0,0,0,0,0,0,0,0,0,0,0,0,0,0,0,0,0,0,0,0,0,0,0,0,0,0,0,0,0,0,0,0,0,0,0,0,0,0,0],"sum_hessian":[1.7010155E5,7.962982E4,9.047173E4,4.162287E4,3.8006945E4,6.309794E4,2.7373785E4,1.9651148E4,2.1971725E4,1.6438781E4,2.1568162E4,2.9328795E4,3.3769145E4,1.1581411E4,1.5792374E4,1.3646065E4,6.0050835E3,8.772846E3,1.3198878E4,1.370293E4,2.7358516E3,1.6092387E4,5.4757754E3,4.4729336E3,2.4855861E4,2.9919998E4,3.8491475E3,6.2290835E3,5.352327E3,3.263822E1,1.5759735E4,1.2533229E4,1.1128369E3,5.679213E3,3.258706E2,7.34094E3,1.4319056E3,1.0956624E4,2.242254E3,6.6696665E3,7.0332637E3,8.15075E2,1.9207765E3,1.4750677E4,1.3417107E3,4.2310236E2,5.0526733E3,1.2026581E3,3.2702756E3,2.0429133E4,4.4267285E3,7.0521606E3,2.2867838E4,9.7711786E2,2.8720295E3,2.2060106E1,6.2070234E3,1.3502966E2,5.217298E3,2.4542425E1,8.095795E0,6.1365368E1,1.569837E4],"tree_param":{"num_deleted":"0","num_feature":"21","num_nodes":"63","size_leaf_vector":"1"}},{"base_weights":[-1.2516948E-4,-8.6986744E-1,8.750948E-1,-1.3885226E0,-3.7345982E-1,5.719562E-1,1.520192E0,-1.6351807E0,-1.1739388E0,-5.799156E-1,-1.5567479E-1,3.5449442E-1,8.860754E-1,1.2261393E0,1.7381625E0,-1.6929003E0,-1.4985595E0,-1.2824556E0,-1.0229954E0,-7.3559654E-1,-4.6385023E-1,-2.9649636E-1,7.362237E-2,1.394896E-1,5.41199E-1,7.379093E-1,1.1524014E0,1.078289E0,1.4575957E0,-1.6340114E0,1.7452656E0,-5.1104527E-2,-1.7070128E-2,2.300418E-2,-4.5455765E-2,-3.980677E-2,-1.8507399E-2,1.166121E-3,-3.198066E-2,-2.601571E-2,-8.5564E-3,-1.5054141E-2,2.4492885E-3,-2.000494E-2,-4.7663935E-3,1.4120847E-2,-1.4533564E-3,-1.1851929E-2,8.826191E-3,1.39383245E-2,2.80529E-2,5.717848E-3,2.3346568E-2,5.614526E-2,3.201425E-2,-5.5849966E-2,3.2628495E-2,-3.355225E-2,4.389937E-2,-5.3928573E-2,-3.003381E-2,-5.347923E-3,5.258913E-2],"categories":[],"categories_nodes":[],"categories_segments":[],"categories_sizes":[],"default_left":[0,0,0,0,0,0,0,0,0,0,0,0,0,0,0,0,0,0,0,0,0,0,0,0,0,0,0,0,0,0,0,0,0,0,0,0,0,0,0,0,0,0,0,0,0,0,0,0,0,0,0,0,0,0,0,0,0,0,0,0,0,0,0],"id":22,"left_children":[1,3,5,7,9,11,13,15,17,19,21,23,25,27,29,31,33,35,37,39,41,43,45,47,49,51,53,55,57,59,61,-1,-1,-1,-1,-1,-1,-1,-1,-1,-1,-1,-1,-1,-1,-1,-1,-1,-1,-1,-1,-1,-1,-1,-1,-1,-1,-1,-1,-1,-1,-1,-1],"loss_changes":[1.2838777E5,2.17798E4,1.6438566E4,2.1877656E3,1.9434863E3,3.9064668E3,1.7203633E3,1.4921484E2,3.6112695E2,4.0061182E2,6.793149E2,1.3566475E3,9.223672E2,3.9004883E2,3.7247656E2,1.5986719E2,2.1684766E2,3.7976953E2,4.2308887E2,5.6136035E2,2.6329297E2,6.641249E2,3.8802228E2,1.2993792E3,5.452749E2,3.3156738E2,5.1065234E2,1.93625E2,6.728223E1,1.6124039E0,2.2855469E2,0E0,0E0,0E0,0E0,0E0,0E0,0E0,0E0,0E0,0E0,0E0,0E0,0E0,0E0,0E0,0E0,0E0,0E0,0E0,0E0,0E0,0E0,0E0,0E0,0E0,0E0,0E0,0E0,0E0,0E0,0E0,0E0],"parents":[2147483647,0,0,1,1,2,2,3,3,4,4,5,5,6,6,7,7,8,8,9,9,10,10,11,11,12,12,13,13,14,14,15,15,16,16,17,17,18,18,19,19,20,20,21,21,22,22,23,23,24,24,25,25,26,26,27,27,28,28,29,29,30,30],"right_children":[2,4,6,8,10,12,14,16,18,20,22,24,26,28,30,32,34,36,38,40,42,44,46,48,50,52,54,56,58,60,62,-1,-1,-1,-1,-1,-1,-1,-1,-1,-1,-1,-1,-1,-1,-1,-1,-1,-1,-1,-1,-1,-1,-1,-1,-1,-1,-1,-1,-1,-1,-1,-1],"split_conditions":[1.3941667E2,1.8833334E1,1.234E3,3.5833333E0,5.7833332E1,4.15E2,3.412E3,1.6666666E0,6E0,2.3666666E1,8.4E1,1.93E2,8.475E2,1.616E3,1E1,2.2E1,5E-1,5E1,3.8333333E0,6.6E1,2.13E2,1.1E1,3E0,2.4E1,1.234E3,1.4E1,1E0,1.3333334E0,7E0,1.15E2,4E0,-5.1104527E-2,-1.7070128E-2,2.300418E-2,-4.5455765E-2,-3.980677E-2,-1.8507399E-2,1.166121E-3,-3.198066E-2,-2.601571E-2,-8.5564E-3,-1.5054141E-2,2.4492885E-3,-2.000494E-2,-4.7663935E-3,1.4120847E-2,-1.4533564E-3,-1.1851929E-2,8.826191E-3,1.39383245E-2,2.80529E-2,5.717848E-3,2.3346568E-2,5.614526E-2,3.201425E-2,-5.5849966E-2,3.2628495E-2,-3.355225E-2,4.389937E-2,-5.3928573E-2,-3.003381E-2,-5.347923E-3,5.258913E-2],"split_indices":[14,14,11,14,14,0,11,12,11,12,10,10,14,10,1,7,14,2,14,11,0,11,5,0,10,2,3,12,19,0,16,0,0,0,0,0,0,0,0,0,0,0,0,0,0,0,0,0,0,0,0,0,0,0,0,0,0,0,0,0,0,0,0],"split_type":[0,0,0,0,0,0,0,0,0,0,0,0,0,0,0,0,0,0,0,0,0,0,0,0,0,0,0,0,0,0,0,0,0,0,0,0,0,0,0,0,0,0,0,0,0,0,0,0,0,0,0,0,0,0,0,0,0,0,0,0,0,0,0],"sum_hessian":[1.6865947E5,8.459446E4,8.406501E4,4.1369305E4,4.3225156E4,5.719181E4,2.68732E4,1.9243184E4,2.2126121E4,2.2188885E4,2.1036271E4,3.3796758E4,2.3395049E4,1.1442856E4,1.5430344E4,1.3519911E4,5.723273E3,1.2867718E4,9.258404E3,9.474795E3,1.271409E4,1.3032277E4,8.0039937E3,1.570871E4,1.8088049E4,1.5034582E4,8.360468E3,6.98599E3,4.4568657E3,3.1952435E1,1.5398392E4,1.3393268E4,1.2664321E2,4.138631E1,5.6818867E3,1.2061411E4,8.06306E2,3.6054333E2,8.89786E3,7.3316846E3,2.1431104E3,1.1887087E4,8.270027E2,3.529723E3,9.502555E3,1.881341E3,6.122653E3,3.5256978E3,1.2183013E4,1.5145403E4,2.9426458E3,1.0317291E3,1.4002853E4,8.8395557E2,7.4765117E3,2.1466105E1,6.9645244E3,9.437548E0,4.447428E3,2.3926744E1,8.02569E0,6.1349827E1,1.5337042E4],"tree_param":{"num_deleted":"0","num_feature":"21","num_nodes":"63","size_leaf_vector":"1"}},{"base_weights":[-1.2427628E-4,-9.1103655E-1,7.9954237E-1,-1.3725463E0,-4.187866E-1,5.0381213E-1,1.501892E0,-1.6189364E0,-1.1563503E0,-6.3524324E-1,-2.5461727E-1,2.0525515E-1,7.6518357E-1,1.203448E0,1.7256275E0,-1.7251183E0,-1.5393807E0,-1.3122681E0,-1.0534165E0,-6.980601E-1,-3.220256E-1,-3.536545E-1,1.638644E-2,-1.0296368E-1,3.355004E-1,7.0025915E-1,1.2777375E0,1.0319146E0,1.4055064E0,-1.6206387E0,1.7326919E0,-5.4925647E-2,-4.9271032E-2,-4.393591E-2,-5.2843306E-2,-3.277922E-2,-4.432798E-2,-3.3591148E-2,-2.195876E-2,-2.7070943E-2,-1.6270254E-2,4.6553956E-3,-2.1529898E-2,-9.503052E-3,-2.8143544E-2,-1.6536049E-3,2.5153084E-2,-2.501329E-2,1.1131439E-3,7.935294E-3,2.2175297E-2,1.2260447E-2,2.3721969E-2,5.2380614E-2,3.3649057E-2,-5.5697836E-2,3.1263284E-2,1.59891E-2,4.2855136E-2,-5.3677373E-2,-2.9454444E-2,4.1983828E-2,5.3343136E-2],"categories":[],"categories_nodes":[],"categories_segments":[],"categories_sizes":[],"default_left":[0,0,0,0,0,0,0,0,0,0,0,0,0,0,0,0,0,0,0,0,0,0,0,0,0,0,0,0,0,0,0,0,0,0,0,0,0,0,0,0,0,0,0,0,0,0,0,0,0,0,0,0,0,0,0,0,0,0,0,0,0,0,0],"id":23,"left_children":[1,3,5,7,9,11,13,15,17,19,21,23,25,27,29,31,33,35,37,39,41,43,45,47,49,51,53,55,57,59,61,-1,-1,-1,-1,-1,-1,-1,-1,-1,-1,-1,-1,-1,-1,-1,-1,-1,-1,-1,-1,-1,-1,-1,-1,-1,-1,-1,-1,-1,-1,-1,-1],"loss_changes":[1.2184981E5,1.7764695E4,1.8501379E4,2.1480312E3,1.3445415E3,4.891509E3,1.7602773E3,1.5666406E2,3.436836E2,3.2089062E2,5.7762756E2,1.1747649E3,1.1113711E3,3.9061914E2,3.5933984E2,6.7603516E1,1.7678711E2,3.086914E2,2.7525488E2,4.3197314E2,5.1520557E2,3.3949744E2,3.3868344E2,8.8990735E2,5.893008E2,7.82334E2,2.7264795E2,1.8221191E2,1.0340625E2,1.7212524E0,2.2527734E2,0E0,0E0,0E0,0E0,0E0,0E0,0E0,0E0,0E0,0E0,0E0,0E0,0E0,0E0,0E0,0E0,0E0,0E0,0E0,0E0,0E0,0E0,0E0,0E0,0E0,0E0,0E0,0E0,0E0,0E0,0E0,0E0],"parents":[2147483647,0,0,1,1,2,2,3,3,4,4,5,5,6,6,7,7,8,8,9,9,10,10,11,11,12,12,13,13,14,14,15,15,16,16,17,17,18,18,19,19,20,20,21,21,22,22,23,23,24,24,25,25,26,26,27,27,28,28,29,29,30,30],"right_children":[2,4,6,8,10,12,14,16,18,20,22,24,26,28,30,32,34,36,38,40,42,44,46,48,50,52,54,56,58,60,62,-1,-1,-1,-1,-1,-1,-1,-1,-1,-1,-1,-1,-1,-1,-1,-1,-1,-1,-1,-1,-1,-1,-1,-1,-1,-1,-1,-1,-1,-1,-1,-1],"split_conditions":[1.09666664E2,1.8333334E1,1.234E3,3.5833333E0,4.3333332E1,3.2075E2,3.412E3,1.2E1,7.0833335E0,6.3E1,1E2,6.2E1,1.829E3,1.383E3,1E1,8.333333E-1,2.4E1,1E0,2.6E1,1.2E1,2E0,2.22E2,2.16E2,3.1E1,4.46E2,2.61E2,1.4E1,1.3333334E0,1.3E1,1.15E2,1.4355834E3,-5.4925647E-2,-4.9271032E-2,-4.393591E-2,-5.2843306E-2,-3.277922E-2,-4.432798E-2,-3.3591148E-2,-2.195876E-2,-2.7070943E-2,-1.6270254E-2,4.6553956E-3,-2.1529898E-2,-9.503052E-3,-2.8143544E-2,-1.6536049E-3,2.5153084E-2,-2.501329E-2,1.1131439E-3,7.935294E-3,2.2175297E-2,1.2260447E-2,2.3721969E-2,5.2380614E-2,3.3649057E-2,-5.5697836E-2,3.1263284E-2,1.59891E-2,4.2855136E-2,-5.3677373E-2,-2.9454444E-2,4.1983828E-2,5.3343136E-2],"split_indices":[14,14,11,14,14,14,11,20,14,11,0,10,0,10,1,13,19,7,20,6,4,4,10,12,9,9,6,12,19,0,14,0,0,0,0,0,0,0,0,0,0,0,0,0,0,0,0,0,0,0,0,0,0,0,0,0,0,0,0,0,0,0,0],"split_type":[0,0,0,0,0,0,0,0,0,0,0,0,0,0,0,0,0,0,0,0,0,0,0,0,0,0,0,0,0,0,0,0,0,0,0,0,0,0,0,0,0,0,0,0,0,0,0,0,0,0,0,0,0,0,0,0,0,0,0,0,0,0,0],"sum_hessian":[1.6727619E5,7.819872E4,8.907748E4,4.0358633E4,3.7840086E4,6.26851E4,2.6392373E4,1.8859133E4,2.14995E4,1.6319723E4,2.1520363E4,2.9261883E4,3.3423215E4,1.1310937E4,1.5081437E4,8.0689463E3,1.0790186E4,8.544722E3,1.2954779E4,1.3592477E4,2.727246E3,1.576046E4,5.7599023E3,8.6922705E3,2.0569613E4,2.966763E4,3.7555852E3,6.1208613E3,5.190075E3,3.129E1,1.5050146E4,3.533195E3,4.5357515E3,8.075715E3,2.7144705E3,3.6730378E3,4.871684E3,1.0737994E4,2.2167852E3,5.8769863E3,7.7154897E3,1.2364672E3,1.490779E3,1.4826299E4,9.341611E2,5.299826E3,4.600764E2,1.3972278E3,7.2950425E3,1.7494654E4,3.0749587E3,7.0268765E3,2.2640754E4,9.363852E2,2.8192E3,2.0890427E1,6.0999707E3,1.3390701E2,5.0561685E3,2.3331253E1,7.9587474E0,1.8088593E3,1.3241288E4],"tree_param":{"num_deleted":"0","num_feature":"21","num_nodes":"63","size_leaf_vector":"1"}},{"base_weights":[-1.2521828E-4,-8.3253646E-1,8.3726263E-1,-1.3513741E0,-3.576721E-1,5.4235566E-1,1.4832364E0,-1.6021394E0,-1.1334128E0,-5.829536E-1,-1.724606E-1,3.293713E-1,8.4340006E-1,1.1807146E0,1.7126161E0,-1.7116972E0,-1.5204266E0,-1.2899319E0,-1.030566E0,-6.657385E-1,-3.728866E-1,-2.6352242E-1,1.8055321E-1,-1.24347106E-1,4.106754E-1,